,0,1,2,3,4,5,6,7,8,9,10,11,12,13,14,15,16,17,18,19,20,21,22,23,24,25,26,27,28,29,30,31,32,33,34,35,36,37,38,39,40,41,42,43,44,45,46,47,48,49
看完,-0.009329711,-0.015468811,0.0031344935,0.0023182204,-0.0056625446,0.0077225603,-0.00013178664,-0.014080081,-0.00010051789,0.005126749,-0.013329023,-0.008508877,0.010649458,0.010395645,-0.008071773,-0.0055209035,0.0014851477,0.011297401,0.00040460695,0.006964941,0.010944498,-0.007832952,0.0004975337,-0.016535394,-0.016508346,-0.0046840305,-0.010664362,-0.006488557,-0.0048173554,-0.007040898,-0.014763618,-0.005057812,-0.0028821945,0.019520285,0.00054923305,0.024497783,0.00813679,-0.010106718,0.0010109236,0.0014711315,0.010733283,0.0041405987,0.01932858,0.001034281,-0.0065168864,-0.007875739,-0.009174908,0.0028759586,0.005860826,0.005353211
之後,0.0021910889,-0.0010611691,0.011117995,0.00475248,0.0013591533,0.0011231734,0.0035364965,0.0038437312,-0.004598688,0.009710694,-0.007601577,0.007347323,-0.001518666,-0.0033028608,-0.0011374932,-0.008558215,0.0028082202,-0.0028312842,-0.0070919646,-0.0022717325,0.0039734133,-0.01107425,0.0046744985,0.0010024839,-0.011468277,-0.006338506,-0.012666149,0.008219518,0.0005736541,-0.008849365,-0.006036878,-0.0134150395,-0.0071728798,-0.0016494767,-0.008690036,0.014026578,0.0010087756,-0.0014397822,-0.011429014,-0.00953248,0.0020318918,0.011949967,0.013110035,0.007689153,-0.011736107,0.0064493045,-0.009498719,0.0029069106,0.0068539507,0.005690166
難過,0.00253499,-0.009915099,-0.0006785641,-0.008054628,-0.0056317416,-0.0029854376,0.0028409672,-0.0015285003,0.0059396457,0.004759462,-0.0033258703,0.0003007061,0.0043955888,-0.00076491403,0.0011682715,0.0021424296,-0.0019314492,0.005650969,0.003653928,-0.008554462,-0.007089795,-0.0101379985,0.008586388,0.0056440528,-0.0075961393,-0.007189093,0.0059262505,0.0035672227,-0.009086726,0.0021681753,0.0043037403,-0.004926151,-0.0046675694,-0.002627221,0.008016117,0.0075168763,-0.0042097424,0.006730742,-0.010307973,0.0051034605,-0.0020937354,0.0064884513,0.0062919506,0.007030567,-0.001282075,0.002506066,0.00700989,0.0005618482,-0.0039335154,0.004139845
感到,0.0025980994,-0.00020606931,-0.008890879,-0.005445718,0.004494429,-0.0034046776,0.0058757444,-0.002237447,0.006666805,0.0016059665,-0.010714912,-0.009729395,0.00727359,2.6359223e-05,-0.00982521,-0.00085384207,-0.007304674,0.008644895,-0.010464996,0.0033850751,-0.0021749204,-0.0031638693,0.008031747,0.004375696,-0.009577956,-0.0067131855,-0.009096251,-0.009162644,-0.008962681,-0.010477795,0.0075974134,-0.009176752,-0.00860508,0.0088477405,-0.0063238475,-0.007382079,0.00029113385,0.0048661456,-0.00588993,0.00551324,0.0029508322,0.0053140502,0.009747831,-0.0025808879,-0.0067655155,0.0073073567,-0.004780958,0.0074601555,0.0019737014,0.006453558
浪費,-0.0110038,-0.014300575,0.011137438,-0.0138145555,-0.0077094473,0.004418042,0.0043791477,0.0017283126,-0.0035608225,-0.0011880674,-0.0073984773,-0.008099531,0.007363642,-0.0040902207,-0.004050837,0.0010287756,-0.00612993,-0.0034970765,-0.010780436,0.004899571,0.003789811,2.2449307e-05,0.001881553,-0.0016429414,-0.006110934,0.007534107,-0.012812881,-0.00086805155,-0.008533594,0.0011554307,-0.000176493,-0.016267007,0.005223276,-0.0046816845,0.00787162,0.017661788,-0.00040795942,-0.005585037,-0.004525351,-0.003105113,0.003695905,0.0010405895,0.017055755,-0.010274174,0.0033892798,-0.0029138108,-0.012803158,0.008611573,-0.003862392,0.0067193904
時間,-0.013010747,-0.005697665,-0.006264561,-0.0059098587,-0.007861003,0.008627716,0.0137435235,-0.014652315,-0.011829696,0.004122796,-0.006479897,0.00091006677,0.004420065,0.014275468,0.004888378,-0.0052326643,0.00041578413,0.012456967,-0.002602275,-0.009139916,0.006578573,-0.009919367,-0.00870416,-0.018466733,-0.0064062234,-0.0060089007,-0.016853152,0.006564606,-0.0067603835,0.005118085,-0.01063718,-0.011334931,0.0057179416,0.0155310035,0.009351661,0.0066564763,-0.0033210728,-0.00781492,-0.00837436,-0.009501034,0.010375266,-0.002264701,0.008658851,-0.0022330733,-0.0012717127,-0.01292513,-0.007775126,0.008691819,-0.006485008,-0.0073689814
結局,-0.0129157165,-0.006498327,-0.0020164151,-0.013760156,-0.011915949,0.002712768,0.0028809507,-0.012561281,-0.014890523,-0.0045068795,-0.0001781695,-0.0020981173,0.0056332066,0.013729787,0.0026304012,-0.010596587,-0.0025703406,0.016227916,-0.010834076,-0.0018225723,0.0025990386,0.0036627296,-0.0027353563,-0.0186388,-0.004123686,0.004327312,-0.00863032,-0.0010878182,0.0035999317,-0.0074158004,-0.00933453,-0.0023395282,-0.0043403404,0.010386438,-0.0047934833,0.013693192,-0.006970873,-7.73932e-05,-0.009409317,0.0066995956,0.0026983875,0.011088431,0.0036669013,-0.00050492253,-0.009826345,0.00090460305,-0.005700155,0.007691744,-0.0035538964,0.00011881494
Marvel,-0.009016581,0.009356257,0.0029900873,0.0023140027,0.003702026,0.008795654,-0.0012614698,0.0052729207,-0.0025775342,0.003408354,-0.0018476571,0.0028016204,-0.0037129885,-0.00011357451,0.006971965,0.004789311,0.0002306969,0.0053553036,0.009672642,-0.003973916,-0.006373513,-0.00071289233,0.008416504,0.007837651,0.009719167,0.009399144,0.0027168493,-0.0076146964,0.0064382954,0.0020827749,-0.007007875,-0.0075067217,-0.0074550444,0.0035871875,-0.000983761,-0.005909095,0.009339958,-0.004769284,-0.008356803,0.009306256,0.0067827976,-0.0073608505,-0.0007012028,-0.00653135,-0.0025608402,0.0051719267,-0.0015120284,0.0036783249,-0.00085881347,-0.0039330446
近期,0.0047765714,-0.0043498464,0.0046533966,0.004812554,-0.0063218707,-0.0029726678,0.006663212,0.007130048,-0.010428566,0.0023327675,-0.00198672,-0.0009771409,0.009932418,0.009219609,-0.0069072037,-0.010640181,-0.008581117,0.008799588,0.004439503,-0.00517803,0.0035703394,-0.009786679,-0.00933729,-0.0035944134,0.00596875,0.0055844393,-0.00798495,0.0083487155,-0.00482477,-0.0073673576,-0.0028388281,-0.006554353,-0.008413839,-0.0006547319,0.0004393077,-0.0046868473,0.000165097,0.0071885497,0.0040188753,0.0032106007,-0.008737419,-0.006734798,6.378313e-06,0.0058819596,-0.010661093,0.0010354156,0.00069302303,-0.002167846,0.005925712,-0.0075502857
處理,0.0080559645,-0.005250795,0.0008503641,0.0055068904,-0.0023630555,0.0071633067,0.0057207104,-0.010822496,0.0069782436,0.0023016764,-0.003599177,-0.0008000734,-0.0043667485,0.0063768895,0.00851394,-0.0016882455,0.00079100305,0.00462756,0.00844172,-0.0076020677,-0.0035468698,-0.0027869828,-0.0024723974,0.0069140093,-0.0070506223,-0.0017162935,-4.4429413e-05,0.008982133,0.008871572,0.00841811,0.0030759412,-0.002711845,-0.002390141,0.005933707,-0.0011134957,0.009357171,0.0022832078,0.008394953,-0.008996338,0.002513196,-0.0016723545,0.0043568527,-0.004013072,-0.00030287096,-0.002751685,-0.0035444836,-0.011315913,0.009689026,0.0031249695,-0.004159765
味道,-0.006224778,-0.007539341,0.0035325203,0.005803706,-0.0035120773,0.0050497204,0.003127498,0.0045752716,-8.365534e-06,0.006509252,0.0047773686,-0.0065036584,-0.0030227741,-0.0028789593,0.00516104,-0.0014058575,-0.009570366,0.00051830494,0.0037311371,0.004406548,0.005721672,0.0058196317,0.0005427888,-0.0076042446,-0.0034710334,-0.0020258087,-0.001237604,-0.0031836221,0.0023184172,0.0048626363,-0.0026851369,0.008733153,0.0083768265,0.0019174538,-0.0077176956,-0.005379489,-0.0058732186,-0.008760243,0.008574409,0.005893352,0.0048310775,0.0062638926,-0.0055538006,0.0046143215,-0.007998158,0.008751315,-0.009334694,-0.009715116,-0.008006711,0.005083455
特效,-0.015209039,0.0006796863,0.013789332,0.00033720912,-0.0039513553,0.012723714,0.002369771,-0.008004092,-0.007062724,0.001346727,-0.019182635,0.0034919728,0.011403361,0.008867883,0.004822319,-0.0004528935,0.00094588514,0.00026113814,-0.009235255,0.0041897465,0.009059943,0.0046876096,0.00038512226,-0.013999438,0.0005059635,0.005888189,-0.002444502,-0.006717374,0.011436791,-0.009551756,-0.013731014,-0.01504249,-0.0134211145,0.002266703,-0.0028645513,0.021408921,8.303521e-05,-0.012505868,-0.0041332515,-0.0019104916,0.004363949,0.013071653,0.010487964,0.007943743,-0.0046859286,0.0023321372,-0.017817834,-0.00647785,0.005249092,0.0066972203
很棒,-0.015181815,-0.005380748,-0.001553094,-0.007878734,-0.007888267,-0.0016593427,0.009235065,0.0032632768,0.002805487,0.00765557,0.0029357509,-0.008494735,0.0035623268,0.007844233,0.0030734343,-0.0037129833,-0.009393721,0.0008703052,-0.0022205692,-0.008951945,0.00898613,0.006504063,0.0014517654,-0.00188131,-0.00946888,0.0059589082,-0.013106315,-0.0072087543,0.0003227969,-0.0004479205,-0.009140431,-0.010354044,-0.004351259,0.014146119,0.010231612,0.018834675,0.0031988558,-0.009383989,-0.0042582755,0.0014768059,0.005786854,0.009634959,0.0011159844,0.00016727825,-0.01646955,0.0037826486,-0.0019623167,0.005683044,0.0051341965,0.00051582785
地方,-0.016169721,-0.0010448497,0.007706939,-0.012265516,-0.012105455,0.011804612,0.010822298,-0.00925197,-0.0012258235,0.010743224,-0.0040750126,-0.00044389995,0.015826201,-0.00026638992,0.009465204,-0.014824394,0.006903898,0.011488172,0.0006151948,0.009308184,0.013455548,-0.0034367386,0.008780564,-0.0059296917,-0.015757047,-0.0031785932,-0.013244241,-0.0075798854,-0.00096840615,-0.004597538,-0.0012822319,-0.007241585,0.0008274813,0.010095794,0.0012012668,0.014237399,0.0064059966,0.005831138,-0.002279262,0.008656171,0.0018637439,0.0033295723,0.012454928,-0.0048849084,-0.0019458598,0.000996738,-0.015148705,0.0009129967,-0.010738816,-0.0025584386
還蠻,-0.0035067897,-0.008913626,0.0009307024,-0.009923934,-0.010729493,-0.0072583165,-0.0017242911,0.0007951494,0.0031164137,-0.008888116,0.0066736625,0.0098287435,-0.001331697,3.953774e-05,0.0068903156,-0.001458016,-0.0069075017,0.010832289,-0.0046399706,-0.0032204578,0.003443618,0.007141657,0.0012738801,0.003200503,-0.003030994,0.00858263,0.0054359604,-0.002372658,-0.007691764,-0.007068592,0.0037275036,-0.0031230329,0.0035139427,0.012028611,0.009042619,-0.0012316261,-0.007295892,-0.0048469747,-0.0029501747,-0.0041014007,-0.0030344855,0.00080826343,0.0024005903,-0.001193633,0.0021391483,-0.0048775906,-0.00051209383,0.006734337,0.008750436,0.008853976
感覺,-0.014268333,-0.010968084,0.0052770046,-0.006370013,-0.012459317,0.0038094048,0.005177177,-0.018216673,-0.011502888,-0.00061158004,-0.0008470179,-0.0021152697,0.0058867005,0.020677302,0.008659715,-0.013117536,0.0051809675,0.000297088,0.003293493,0.007623688,0.0161635,0.0045568817,0.00012498324,-0.010710339,-0.004867129,-0.0020525204,-0.014165462,0.0051411125,0.009854849,-0.009235274,-0.011635186,-0.019035088,-0.0032671387,0.01144239,0.0065870467,0.024838548,-0.0066892947,-0.014842414,-0.0100695975,0.0043921075,0.001494038,0.0037027125,0.0026686946,-0.011884529,-0.006179656,-0.0018267607,-0.01829348,0.0011026688,-0.004214732,0.0056881746
不合,0.0012973847,0.00062041543,0.001344816,0.00734949,0.008350107,-0.004008791,-0.008101975,0.006098735,-0.009587216,0.0063981377,0.0021549186,-0.0028858052,0.007021709,0.0061249244,-0.0068346853,-0.003994667,0.0010213011,-0.00014155106,-0.005100461,0.0069054244,0.001337332,0.0003152479,0.008207162,-0.0062251426,-0.0012179328,-0.0014921091,-0.006651038,-0.006681801,-0.009492959,0.0006229249,-0.005670227,0.003309895,0.0068038167,0.006696481,0.0004130112,-0.00075355975,0.00923984,-0.0005677842,-0.003678728,0.009597311,-0.0016731368,0.001769045,0.0010550426,-0.002062023,-0.0009626545,-0.0059322133,0.007553194,-0.009296961,-0.0053247237,0.008566146
邏輯,-0.009420954,0.0006626916,0.010743314,-0.012340157,0.00065419683,0.00533442,0.0046085576,0.0041784323,-0.0030937684,0.0048544444,-0.014218054,-0.0032729951,0.006238409,0.008571198,-0.0029790231,0.00516733,0.00405059,-0.005216001,-0.01201599,0.009506294,0.0064229844,-0.007867644,0.004632816,-0.013097151,0.005254132,-0.0021434992,-0.010341475,0.005517411,0.0024995145,-0.010168122,-0.011868131,-0.009939418,-0.0051711025,0.007641572,0.009043264,-0.002088233,-0.009198442,-0.008540194,0.003417489,-0.0039756927,-0.009000143,0.005377235,0.002785974,-0.0023663037,0.00015106659,-0.009547429,-0.0035009584,0.00051244185,-0.00829874,0.006037998
奇異博士,-0.006482307,-0.0043103434,0.0029963688,0.0006859851,-0.010247947,0.005712437,0.007934457,-0.0014274645,-0.0052963397,-0.0038491965,-0.0021811463,0.0030257336,0.009194789,0.008213069,0.0030926354,-0.0067182663,0.0073471623,-0.008613118,-0.0035354828,0.00043529228,-0.007963556,0.0041092634,-0.009016179,-0.00016001984,-0.009224394,0.0010201024,-0.0034603938,-0.0041876812,0.0075376662,0.006845599,-0.0015856465,-0.0015029022,0.0026172742,-0.0005220248,0.0010172199,-0.001174297,-0.0007767895,0.005933027,-0.010067746,0.0025155684,0.0010693312,-0.001201681,-0.003859704,-0.008350595,-0.01026766,0.002736624,0.0019673137,0.009037339,-0.0028762354,0.0007723464
寶石,0.0069625294,-0.000808046,0.0025196036,-0.0074372943,-0.003924678,0.0039549796,-0.0023893218,0.0016911322,0.004430139,-0.004052435,0.00043443876,0.00065328024,0.0060707764,0.0076285247,-2.0432382e-05,0.002041083,-0.009684504,0.0018161965,-0.0035127664,-0.006884549,-0.0047860513,0.008978593,-0.0022203429,-0.0036931778,-0.010265196,-0.0012429283,-0.0044526365,-0.0042166035,-0.0046172566,0.0033865809,-0.0017475295,-0.0038483257,-0.0075211693,0.0045191078,-0.0012676415,-0.008143472,-0.00080366933,-0.008976548,-0.0035663275,-0.0073912535,-0.0041784826,0.0066755004,0.00271874,0.005297143,0.0056183217,0.008346063,-0.0060317144,0.0009186116,-0.0011067274,-0.008094173
the,-0.0022265355,0.0011140936,-0.005292349,0.0017810193,0.0092397705,-0.007753579,0.0041019935,0.0004583815,-0.007924401,-0.0015215502,-0.00617216,0.008876834,-0.0048307437,-0.009246882,0.0034510824,0.0011191012,-0.00819081,0.009556149,-0.0015345559,0.0017319057,-0.0006080045,0.0011044113,0.007596003,-0.002042883,-0.0035559158,0.007831769,0.0073974915,-0.0040992685,0.008224241,-0.004047299,-0.008761013,-0.008977719,-0.005984028,-0.008321157,0.00077872234,0.0023094907,-0.005465857,0.007055635,-0.007198616,0.0024407916,-0.006329832,0.008672596,-0.003981282,0.00733795,0.0047867773,-0.0036116415,0.005510834,0.002769103,0.007468642,-0.009937358
故事線,-0.0071894336,-0.00062601705,0.001114689,-0.0031273044,-0.0052028587,0.0019316325,-0.002806051,0.0047021187,-0.007358736,-0.0038011672,0.006180469,-0.0047299284,-0.005214194,-0.008862036,-0.00027683808,0.0034160984,0.0034704108,-0.0028065015,0.005780361,-0.0005853227,0.009858853,-0.007093857,0.0044220947,-0.009707141,0.0039314693,0.006488389,-0.0013482559,-0.0017351551,-0.0051509663,0.003648949,-0.006654197,0.0047710966,0.008788187,-0.0005661217,-0.008481934,0.0041810675,0.003367641,-0.0026017816,-0.008370436,0.006486887,-0.00995544,0.0070501645,0.007478047,-0.0025400121,-0.0033912777,-0.005151604,-0.008159958,-0.0014795214,0.0032517118,-0.0018613726
了解,-0.0018866453,0.0059950133,0.008975214,0.0024248427,-0.0039469856,-0.0037232894,0.007235285,-0.0108917765,-0.0071950066,0.0021006828,-0.0024721404,-0.0067573055,0.0019574142,-0.0014212253,0.0058465507,0.006924066,-0.0070289997,-0.0010335671,-4.6063993e-05,-0.00037734574,0.0018055122,0.000115211194,0.007008072,-0.007870033,0.0053691827,0.008902865,-0.008702589,-0.0006706212,-0.005071825,-0.0065532764,-0.0073122922,-0.0038778794,0.0011059077,0.012645807,0.002808183,0.009057211,-0.0063974685,-0.0045037954,-0.0046376283,0.0017824253,-0.006385259,0.0075319028,0.011352702,-0.008870861,-0.00047681708,0.0022853473,0.006165368,0.007491239,-0.0005874624,0.0023156442
無法,-0.0071694013,-0.0051129977,0.0075616934,-0.01240264,-0.007251149,0.005416828,-0.00719151,-0.00029734417,-0.00015799513,0.003071953,-0.010770755,0.00882628,-0.00052233855,0.0013893972,-0.004184561,-0.0047363313,-0.009745947,0.0043403865,0.0059940233,0.0016808703,0.009288821,0.003546195,-0.005961541,-0.005007149,-0.010541642,0.0039526694,-0.008287347,0.001746205,0.0079327375,0.0070524793,0.005159526,0.00188371,0.0036497302,0.0076885945,-0.0067407642,0.012955491,-0.0029324798,-0.009333823,-0.00856419,0.008470943,0.0037282475,-0.005778167,0.003314498,-0.0068078106,-0.0126827955,-0.003916785,-0.0069604763,0.008841693,0.0072612455,0.0057439515
體會,-0.009675589,-0.0046522124,0.006817568,0.004750088,0.005443076,0.008228783,0.0026127412,-0.0100992145,-0.0006728713,-0.00011046818,-0.010448102,0.008677311,0.007497813,0.0076395352,-0.0051385793,-0.0030044473,-0.0001662467,0.004909583,0.002558461,0.008376865,0.008825855,0.008336159,-0.0022218616,0.007648355,0.003883292,-0.0008699685,0.008440753,0.0085088285,-0.004636995,0.0076902485,-0.009866096,0.0040569264,-0.0030355928,-0.0008982792,-0.001307209,0.0023583202,0.0022284098,0.0018742629,0.005048895,-0.009679342,0.0060524466,-0.0013934548,0.009708152,0.0033159102,0.006850105,-0.0064983973,0.0069938926,-0.009916808,0.0066629285,0.006100793
情境,-0.001515552,0.00049727916,0.00074478035,0.0054533957,-0.0071231527,-0.008600089,-0.008637541,-0.0071938555,0.005574549,0.00467105,0.0070190784,-0.009404493,0.0019275007,-0.0016608475,-0.0030825809,-0.0013162845,0.0035395015,0.0034396127,-0.005365473,0.0075774454,0.008605568,-0.005967224,0.0012224271,-0.001491392,9.8453034e-05,-0.0031507076,-0.0026043577,-0.009208618,0.003081233,0.008451151,0.0024281663,0.0084271105,-0.00079865445,0.005685522,-0.00063418446,0.0030016878,0.0028107956,0.005339368,0.0012199981,0.0037011656,0.008700442,-0.007540752,0.008342451,-0.004916288,0.0047906004,-8.5777836e-05,0.00913088,-0.003650714,0.008663576,0.0037054038
復仇,-0.0007057336,0.0026243716,-0.008558903,-0.010379378,-0.0026635898,-0.0028974887,-0.004490966,0.008051926,0.0019633826,-0.008493211,-0.00306191,-0.0013975939,0.0046303472,0.0052158576,-0.006044455,-0.0015346647,-0.0054922267,-0.002260628,0.0032063846,0.00028614042,-0.007571262,0.0014075143,-0.0017076106,-0.0073793917,0.0033566568,-0.0012010849,0.007931141,-0.006816508,0.0022938128,0.008840143,-0.011570214,-0.0035805302,-0.0050188364,-0.005637212,0.004341362,-0.00080923416,-0.003807349,0.0072993874,0.00033439614,-0.00036619126,0.009189834,0.0017781153,-0.0025699106,-0.0040058503,0.00052387663,-0.0054200417,-0.0016802045,0.009260053,0.0032306681,-0.0039368556
系列,0.0002584847,-0.01025232,0.00094307354,-0.009327143,-0.005568302,0.012068227,-0.0027801385,0.0015709647,0.0018579244,0.009449876,-0.0008842371,0.004105195,0.013930069,0.0104692625,-0.0024038388,-0.012870905,0.0043460755,0.012811307,-0.005336472,0.00097287394,0.010851404,-0.003880503,-0.002097752,-0.0035086572,-0.0022288125,-0.011120486,-0.001837075,-0.0037558593,0.009572074,-0.010700654,-0.008521657,-0.011610763,-0.008840397,0.0013676102,-0.0009923556,0.010224134,0.00022913243,-0.0063586873,-0.0021678384,-0.002733352,-0.0014853971,0.0072118896,0.0030178588,-0.0026164192,-0.005253871,0.00432359,-0.0043725614,-0.008965642,-0.010207626,0.0042317924
瞭解,0.0038553295,0.0022893965,-0.0068012993,-0.0025831428,-0.00072994275,0.009219428,0.0023811734,-0.0010292296,-0.0065864376,0.006993243,0.009049727,0.0012349518,-0.0032833854,0.0074419896,0.009071621,-8.572821e-05,0.0062616016,-0.0046565193,-0.0030598787,-0.0027711205,0.0071986336,-0.0019542745,0.0077514,-0.008134225,-0.007018951,-0.0052168397,0.008284249,-0.00084696163,-0.0028054144,0.008073628,0.00963258,-0.00044805012,0.0063366243,-0.0028996996,0.0019594163,0.0066055725,0.00905722,-0.002174005,-0.0063186516,4.9331615e-05,0.008911644,0.0050218697,0.0048094895,0.0015591979,-0.007787955,0.009203813,0.0027849104,0.004811888,-0.0016252145,0.0034214724
出戲,0.003835364,-0.005159464,0.010924547,0.003702301,-0.0034680215,-0.00036839687,-0.0053445003,-0.005087703,0.00024186865,-0.004120321,-0.008744162,0.00652812,0.0019648427,-0.0061153583,0.008347417,0.0011912505,0.002629381,-0.00047226378,-0.0050875507,0.0063736085,0.0057529774,-0.01033228,-0.0047799605,-0.009162628,0.000702395,-0.003294918,-0.010406276,-0.010827542,-0.0017704056,-0.0002555398,0.0063029747,-0.006847881,-0.0072295195,-0.0038164435,0.0073626707,0.0058389916,0.0014868508,0.008035723,-0.00848461,-0.00977128,0.005525432,-0.008047138,0.0058242865,0.0033330212,0.006965318,-0.0040148078,0.0039852136,0.004722807,-0.00691643,0.0059063095
從頭到尾,0.0015959023,-0.008036193,-0.001655123,0.006142188,-0.009133407,0.0028566662,-0.0077318694,0.0024215695,-0.010532736,-0.0021469782,-0.0072392416,-0.008443746,-0.00097124296,0.009974197,0.0075403196,0.0007758598,-0.007889318,0.009373367,-0.008207599,-0.00468992,0.003971405,0.006764093,-0.006239724,0.0040269857,0.00071385596,0.0064547104,-0.008175176,-0.010471937,-0.006498879,-0.002630519,0.003993461,-0.0051048473,0.0006974907,0.002435122,-0.0051633213,-0.0034494218,-6.466653e-06,-0.00799462,0.0047855154,-0.0068142563,-0.0061118905,-0.0017679764,0.007522332,0.0005300438,-0.00022192356,0.008216345,0.0014139878,-0.009410004,0.003323283,0.0052065593
鋪陳,0.00014105535,0.0021757882,0.009701108,0.0044509233,-0.0028928318,0.007681988,0.007267053,0.0042153993,-0.0024309587,-0.004036536,-0.011241977,0.0045471084,0.010106265,0.011589607,-0.002378417,-0.0062565967,-0.0057103215,0.011660626,-0.005100282,-0.009228233,-0.0034242747,-0.006352874,0.005012335,-0.009506706,0.0045398464,0.0019307903,0.004764952,-0.0076627503,-0.00031345227,-0.0037723507,0.004609816,-0.006157947,0.0043574334,-0.0010274935,-0.0073491465,-0.0032910625,0.007160727,-0.0028540283,-0.0075802035,-0.009506696,0.0016331816,0.0072509446,-0.004780893,-0.009700146,-0.008693597,-0.00015826512,-0.011282224,0.0046200487,-0.0019716155,0.006844363
動畫,-0.009144399,-0.0017179451,-0.004347794,-0.006184139,-0.012040509,-0.0034133545,-0.002977676,-0.0066092247,0.005967043,-0.0032903883,-0.011318513,-0.009953122,0.011619281,0.008684093,-0.0072639054,0.0065223197,-0.0009517484,-0.0051253536,0.00039754648,0.0055476935,-0.0010902606,0.008809755,-0.003381747,-0.011075341,-0.0035331037,-0.003745995,-0.0031918685,0.003749693,0.008722502,-0.0030931304,0.0047521945,0.003841388,0.0026349886,0.0018469569,-0.0073327636,0.00039301885,-0.008209214,-0.0016790675,0.0041276077,-0.0074944836,-0.004081103,0.009570135,-0.003525112,0.0036040682,-0.0028258099,0.007690029,-0.0050926344,0.007988489,-0.0017415999,0.0053671505
劇情,-0.021073269,-0.028007533,0.016901722,-0.011972491,-0.01690362,0.018297661,0.012760398,-0.018140573,-0.015260338,0.013688326,-0.020627273,0.006682526,0.023894092,0.02662166,-0.0002611142,-0.005333265,-0.0016077572,0.007996106,-0.01474068,0.00023547502,0.006223576,-0.0013581961,-0.0043675527,-0.033931233,-0.014668841,-0.002927728,-0.029166626,-0.0034781892,-0.0032360132,-0.013637619,-0.02805843,-0.024263514,-0.012064861,0.0093344925,0.00450001,0.029283037,-0.010321358,-0.002609704,-0.0034239294,0.002563965,-0.0060952767,0.0029222232,0.02145572,0.005319298,-0.027867159,-0.00062339706,-0.025996141,0.007219315,-0.00052395684,-0.0071204184
集結,0.009548188,0.0041327896,-0.00081148325,-0.005503864,0.0080968365,0.0048812763,-0.002870535,-7.585992e-05,-0.0059984033,-0.006063069,0.0045656404,0.0072175995,-0.008083427,0.007343468,0.0013146368,-0.0071077878,-0.004318853,-0.0045262533,0.009366437,-0.003622044,-0.000900419,0.0017212621,-0.0042071263,0.0042813444,-0.005187451,0.0022132883,-0.009692092,-0.0016319979,-0.008541202,0.004852877,0.0033917162,-0.0014560609,0.008021366,-0.0009949905,-0.0045312596,0.003789679,0.004990294,-0.0040709036,0.0073329126,-0.009433635,0.00027987387,-0.004340972,0.0025166767,-0.008166872,-0.0055201794,0.009024176,0.008443133,-0.0056054313,0.00499925,-0.00071190525
一起,-0.0044961646,-0.004589876,0.009628288,0.0043118494,-0.0071781874,-0.005064153,-0.00046249075,-0.0024560217,-0.002086693,0.003829687,-0.0038006816,0.0046094796,-0.0048066387,0.008098613,-0.0036010954,-0.0004170029,0.0031901905,0.004234939,-0.007229265,-0.004434578,0.0074121575,-0.0110755535,0.0001286818,0.0013646331,-6.319638e-05,0.0043791234,-0.009714605,-0.0007224052,0.008845184,-0.0063360888,0.0003072154,-0.008374607,-0.010238039,0.0047286563,0.009298465,0.0062672235,-0.0011081531,-0.0059653884,0.0012629952,0.0011377753,0.010073601,-0.0028027934,-0.0035764708,0.007814854,-0.014445892,-0.0059127505,0.00079850125,-0.008660093,-0.010952887,0.0019368111
打壞,0.0014894994,-0.0057695494,-0.006012449,0.0024061783,0.0023996425,-0.0002657479,0.005582725,0.008013979,0.0075288056,0.009436023,0.005061714,0.0023074362,-0.008403348,-0.0013156583,-0.0024525858,0.008656476,0.0036921033,-0.0078499615,0.0088837,-0.0052763755,-0.00027666587,0.0060509224,0.0065480955,0.0052396236,-0.004362104,0.008818373,-0.00459244,-0.009139334,-0.003845445,0.0050365003,0.007923896,0.007786069,6.9035314e-06,0.008148121,-0.009916013,0.0030224905,-0.009001367,0.0026914666,0.008061299,-0.0056715994,-0.00920596,0.00703887,0.0076365876,0.0021302965,-0.0027459324,0.005020798,-0.0064119278,0.009444568,0.0054798936,0.0021027327
適合,-0.0058450433,-0.010291943,-0.0019677486,-0.00036648285,0.0019471935,-0.0024063522,-0.0039759576,-0.005534555,0.0024172596,-0.0022313544,-0.0041376376,-0.0038069875,0.010838371,-0.0015295165,-0.008267763,-0.0068398514,-0.007277426,-0.005421909,0.0024026188,-0.0050765444,0.0119954925,-0.0043792157,-0.007537978,-0.0013228159,-0.008554966,0.0070745004,0.0035570632,-0.011480847,-0.0021235403,-0.0021551792,-0.004339982,-0.0020595544,-0.0055206544,0.0034535462,0.00648873,0.0082129035,0.009262371,-0.007010186,0.0015462408,-0.0041030818,0.0016493712,-0.005967917,0.014022076,0.0008556813,0.0020170223,0.007004079,0.0046568424,0.0047172215,0.0055089835,0.007760558
當做,-0.0073845265,-0.0072954046,0.004722573,0.009216281,0.004814507,0.009645176,-0.005640386,-0.0020229162,-0.005189168,-0.0018746725,-0.00939868,-0.006278118,-0.0010009076,0.0022221135,0.0001045082,-0.0055582905,0.009569203,-0.002234716,-0.0052118106,-0.005881536,0.009559489,-0.00017436364,0.00017322578,-0.004551312,0.0047077728,0.009096396,-0.0032494266,-0.0055047767,-0.00545553,-0.005438133,0.0071930117,-0.0092289625,-0.0025398177,-0.0012365041,0.005889539,0.005922294,0.0096187955,0.0022485643,-0.0067160344,-0.008848085,0.0053490615,0.0032968358,0.0013976899,-0.00037244995,-0.010101296,-0.0057739173,-0.0018140868,-0.0055751377,0.00879805,0.0009996626
賀歲片,-0.002366825,0.008647981,0.006580604,0.009529282,-0.006782527,-0.0051050154,0.003007308,0.0047517978,0.001751197,0.006915256,-0.0018910347,-0.008825446,-0.005729334,0.0078024687,0.0060065873,-0.0011816694,-0.0033916875,-0.0029968107,0.004751163,0.008898809,0.0018538059,-0.0044115637,0.0033377295,0.005487939,0.0028651734,0.0047604614,0.0045593064,0.0037224314,1.1463616e-05,-0.006547793,-0.008709472,-0.0094702495,0.00896233,-0.002127008,-0.0076864758,-0.00036691895,-0.0054510785,-0.009333164,0.0021097069,0.0055804458,-0.008363731,-0.004495165,0.0051622796,0.007401931,-0.0020570846,-0.0020620844,0.00030891286,0.0030740942,-0.0059915334,0.002758552
一句,0.007749373,0.002419892,-0.0008670007,0.004915776,0.0075867423,0.0100139575,-0.0015005841,-0.0021541016,0.0014513835,-0.0062350645,0.008430545,-0.007951808,-0.00293484,0.0012397016,-0.0029410934,-0.0027047617,0.006851069,0.002890674,0.0057151215,-0.005947757,0.006081214,-0.007294865,0.0055319644,0.006547288,0.006750367,0.0062416256,0.0060870238,-0.006142404,0.00021985028,0.008605779,-0.0044761347,0.0010908045,0.0052834763,-0.006372952,-0.000867513,0.0038477217,-0.0062380247,-0.00989495,-0.0025185084,0.0039182967,0.004556064,-0.007843638,-0.005450641,-0.006892232,-0.0015166511,-0.010014668,0.0067857676,0.009400949,0.0011375853,0.0044623846
誰人,-0.008098039,0.001944795,0.007052373,-3.2247102e-05,-0.007937786,-0.008146145,0.00619844,-0.006153145,0.0017423535,-0.0024879512,0.0073611173,0.003428726,-0.00790186,-0.002706378,0.007853254,0.0013913852,-0.009248152,-0.00612278,0.00660397,0.00086810265,-0.009002225,0.002859468,-0.0019440283,-0.0025925033,0.0049612867,0.0037312177,-0.0074258973,-0.00021423174,-0.0031405152,-0.004913134,0.006087263,0.005778418,-0.0012012194,-0.0038222102,-0.004184821,-0.0010856997,-0.0049980246,-0.0054156994,-0.004387622,0.0020917035,-0.001996116,-0.0071732244,-0.0052429726,-0.009441212,-0.0087584155,0.0023837853,-0.0018422017,-0.0029516546,0.007466653,0.0046791118
這次,-0.0065018907,-0.0069012796,0.0013706344,-0.012189678,-0.001383255,0.0017796992,0.0044941436,-0.008080679,-0.0077510555,0.0009460942,0.004981314,0.005372782,0.0049795103,-0.0013718976,0.008044657,-0.004682213,0.0032733309,0.0036999714,0.0047322423,0.003255788,0.01136355,-0.0069398866,0.00558898,0.0006440476,0.0044366196,-0.004326882,0.0016232965,0.00034410975,0.0011115705,0.0053502717,-0.00030606193,-0.002001558,-0.007558829,-0.0010778654,0.0073395395,-0.00196401,-0.0058787265,-0.011472067,-0.004767143,-0.0026690068,0.009062835,-0.0008931202,0.008671243,-0.0020683,-0.011478803,-0.009677963,0.0023558848,0.006797402,-0.009096914,0.00802636
壞人,-0.0041356497,-0.011713647,0.0077494644,-0.011436652,0.004748209,0.00081439846,-0.0055652913,-0.001206488,-0.007367196,-0.0076255803,-0.008392696,0.0031376784,0.010561633,0.009773178,-0.009350506,-0.004410639,-0.0055809394,0.006111325,-0.003118418,0.0039373506,-0.006853384,-0.007911693,-0.00902029,0.00047225552,-0.009140779,-0.007441094,-0.0035372842,0.0051227603,0.008562586,0.00014270906,0.0032826276,-0.008577341,0.0005259684,0.001566173,-0.0078089344,-0.0020531232,0.0005174519,0.005637619,-0.007001121,0.0050896895,-5.2066247e-05,0.011342681,-0.0065497174,-0.005253867,-0.0024095406,-0.0024096495,-0.0073025753,0.00034197432,-0.0057849814,-0.009137452
看下去,-0.0003088331,0.0037848768,-0.0018299681,-0.0038387512,-0.0041716965,-0.0077270004,0.00047217397,-0.0090774605,-0.0016349268,-0.009821161,-0.0041465187,-0.0038139818,-0.008482633,0.006871689,-0.0028459576,-0.009710462,0.0053509576,0.008673137,0.007772862,0.004733702,-0.005899863,-0.0029306412,0.00059942465,0.0037663719,-0.0023315975,-0.0075846678,0.007178422,-0.0039071837,-0.0026254703,-0.005549987,0.0044985134,-0.0002195923,-0.0076674693,-0.0014349454,-0.004967367,-0.0040307324,-0.0033690194,0.0049791797,0.005491761,0.006816067,-0.007306013,0.0026454662,0.00482246,0.0014748973,-0.0040415027,0.0047066133,0.0044812686,-2.6534468e-05,-0.004471839,0.007279203
期待,-0.01406302,-0.017754754,0.0021513002,-0.0032457882,0.0021853913,0.0080305105,-0.0044688657,-0.010575588,-0.004273342,-0.0028165001,-0.004950811,0.0037100792,0.0060798917,0.0010939956,-0.008617046,-0.01571275,-0.010367779,-0.0022142534,-0.011867385,-0.0040810965,-0.00043604072,-3.0575673e-05,-0.007062119,-0.005154664,-0.014152605,-0.00839255,-0.016651684,0.0028518399,0.003161607,-0.004796256,-0.016335616,-0.00952436,-0.010642073,0.018026711,-0.0049235784,0.01042367,0.0008729879,-0.012760765,-0.0048127593,0.006920494,0.0052312473,0.014095792,0.004484228,-0.011228329,-0.014856609,0.0014227194,-0.0059526586,0.0004052822,-0.0024220573,-0.004134962
續集,0.004619215,0.0005321362,-0.004882311,-0.0005377939,-0.0017834017,0.011296329,-0.0031985575,-0.010525511,-0.010419597,0.011584779,-0.012225861,-0.001291247,0.0038278766,0.012229143,0.010516398,0.0022176327,-0.004062661,-0.002467491,-0.004412731,0.0011630704,0.003703605,0.0046256357,0.00851929,-0.013817355,-0.0065743746,-0.0074318675,-0.009474945,-0.002674004,-0.0077458164,-0.009082544,-0.007943219,-0.0014679937,-0.00950908,0.01148954,-0.0013664186,0.006717689,-0.0063899886,0.0047851014,0.0061511626,0.0062563606,0.0029761824,0.0024415038,0.008822237,0.003198658,0.0040284856,-0.009021703,-0.007501674,-0.006437389,0.00160033,-0.008539321
真是,-0.011028368,0.002294577,0.009027971,-0.011144356,0.0014545126,-0.0078010843,0.0047125774,-0.0109692225,-0.0069634845,0.010153052,0.006319264,-0.00660751,-0.0031271596,0.011408979,0.008186227,-0.0065193097,0.0027123983,0.0040713823,0.0060129114,-0.0049733543,-0.0079016,-0.0038848121,0.0035902003,0.0023485543,-0.009385966,-0.0032314851,-0.008517203,-0.002652307,0.008035544,-0.0017940424,-0.013594132,-0.0067732306,0.0022469684,0.01178487,-0.005093736,0.011781444,-0.0042532366,0.003761113,0.005786217,-0.007900352,0.008699098,0.009274586,0.012901852,-0.0034253146,-0.009821429,-0.007919235,0.0067974357,0.006686976,-0.0018382389,0.009470555
上次,-0.002370285,-0.0038059712,-0.004782954,0.007833675,0.0077702496,0.0012931763,0.0019014275,-0.00072811474,-0.0056421882,0.0052820933,-0.0034341293,-0.009475356,-0.0034433792,-0.009763418,0.00993561,0.0034484114,-0.0035888099,0.0066377637,0.0065883743,-0.0027901623,0.002819942,0.00092171476,-0.0041158637,-0.0073109022,-0.00945615,0.0037448944,-0.007815066,0.006178359,0.0094604725,-0.0056701857,-0.009786955,0.00073369534,0.0015253897,0.0055272235,-0.0047742324,-0.0026189287,0.007570199,-0.00896398,-0.00082558166,0.0030679714,0.008839906,0.009350397,0.0068111443,-0.007069284,-0.0071559544,0.0043617706,-0.0008340112,0.0053872364,0.0044315625,-0.005000962
鋼鐵人,0.0073357215,0.008616682,-0.0052714827,0.006477723,-0.0080835065,0.0044712364,0.005464342,-0.0017843307,0.0014727596,-0.0032141178,0.00085135037,0.0065702167,-0.0023888573,0.0022533827,0.007205615,0.008616928,0.0071429606,-0.0075873416,-0.0050924136,-0.006499005,0.0039620423,0.0009859315,-0.009840229,0.0023118472,-0.0046565635,0.008959815,-0.00046001258,0.0025904847,-0.00014928868,-6.581124e-05,-0.0017379023,-0.0030643987,-0.0013099712,-0.00016690762,-0.0023972054,0.007676809,-0.00761246,0.00812028,-0.006948165,0.0012334154,-0.0026613688,0.0048490954,0.0021497803,-0.0008513922,-0.0073253866,-0.003596454,0.0036153195,-0.002717629,0.009300652,0.0016321312
差點,-0.0033062699,-0.0056172707,-0.0006085952,0.0015637473,0.006245578,-0.0032204345,-0.0036010526,-3.923835e-05,-0.00807463,0.007979367,-0.0097364485,-0.003038136,-0.002566311,-0.0010337839,0.0025616249,-0.009931588,0.0008718761,0.0055335457,0.0076972335,-0.0077637318,-0.004023721,0.00791708,-0.0023917933,0.007049534,-0.0046621,-0.0056432555,-0.010890654,0.0073836157,0.0024520652,0.0062894183,0.0030128146,-0.006482829,-0.0031316148,-0.0077886474,0.00024139737,0.0037141433,-0.004702587,-0.0017811576,-0.0011408366,0.0019155556,-0.0070978445,0.0030839886,0.0015460829,-0.004723504,-0.00011588566,-0.007232201,-0.010070419,0.0003406764,0.004016382,-0.010022333
爆頭,0.002004315,0.009542826,0.00033844833,0.006742417,-0.00025818514,-0.0075680404,-0.0051328926,-0.0034058501,-0.0035118044,-0.009733755,-0.0025161717,0.0021448643,0.00047138034,-0.007868905,0.0039896755,0.0023244119,-0.005125345,0.007918753,-0.0052154097,-0.003940646,-0.0029638445,0.00019346205,0.0059569147,0.0036432997,-0.007981681,0.006081998,-0.009606233,-0.0025606568,-0.000744665,0.005707507,0.0012353727,-0.009791327,-0.003407078,-0.0040901555,-0.007958098,-0.003068526,-0.00978401,0.0081449775,0.0074255136,0.009628094,-0.008743661,-0.008869923,0.0060336096,0.009899882,-3.7114758e-05,0.009551069,-0.007590738,-0.007483585,0.008248034,-0.009085936
毀滅,-0.006237258,-0.010106553,0.0022866991,-0.004129164,-0.008423087,0.008119682,-0.0058523607,0.0051550674,-0.0029262754,0.00589406,-0.0042865374,0.0060802586,0.008010475,-0.0005971277,0.0071174186,0.00019625561,-0.0024109925,-0.0030312387,0.0013245544,-0.0040730434,-0.0025438755,-0.0022690534,-0.004074125,0.009303026,-0.0021824471,-0.0050318604,0.009502926,0.0061222967,0.0016569194,-0.0046805637,-0.009665824,0.0017400808,0.001381335,-0.0002073794,-0.0041796183,0.0014007519,0.0018633399,-0.0029786748,0.0008439035,-0.009100212,-0.0043186145,0.005963092,2.2888228e-06,0.00861121,-0.0035165783,-0.00395759,-0.0087248385,-0.009473731,-0.0065773884,0.005743363
一半,-0.0023390944,0.002202887,-0.005147398,-0.008689142,-0.003235179,0.008924246,0.007945787,-0.0029910177,-0.0012305909,0.004920452,-0.009659394,0.0016743997,-0.0010604339,0.005365446,-0.0017431616,-0.0031134964,-0.006684174,0.009816567,-0.0010208056,0.00226773,-0.0066755605,-0.0053037563,0.0011684808,0.001240922,0.0082198065,0.0037232526,-0.0010412091,-0.009324057,0.008096224,-0.009310432,-0.0057608355,-0.0019512518,-0.008772473,0.008243521,0.009635139,0.0004271652,-0.00952665,-0.0015281871,0.0007773686,0.007351259,0.0042833975,-0.0038040106,-0.0061190533,-0.0014238257,0.0022371474,-0.0048888614,0.0048349393,0.008592746,0.006270124,0.0022464208
人類,0.0023552373,-0.0021341257,8.428082e-05,-0.008398322,-0.009818762,-0.0044577844,-0.0025087532,-0.0040691374,-0.008110341,-1.9414945e-05,-0.0017626081,0.0005547994,-0.0027643444,0.01101148,0.0068234573,0.005786642,-0.0062873666,-0.0050516464,0.0018196403,-0.0005283618,0.0057595787,-0.01111008,-0.0062372196,-0.008233264,-0.00041157927,0.0052479976,-0.012853979,0.0023399524,0.0029435307,0.0067394637,-0.009697061,0.003304196,-0.010082154,0.0007206942,0.0043566413,0.009041382,0.0092331525,0.002922034,-0.0026470807,-0.0050626285,0.004056637,0.009501707,-0.0020133182,0.0038449825,0.005073328,-0.010597048,0.0034541076,-0.009375727,-0.006287048,0.009570229
生命,-0.0024208825,-0.007302577,-0.0012331372,-0.0018508532,0.0073055536,0.005868041,0.008159016,-0.002944379,0.0005502262,0.0033166707,-0.0003063199,-0.0027984611,0.0028890786,-0.0004212643,-0.0038751555,-0.0048073335,-3.694995e-05,0.007252173,0.0030430097,-0.0064238487,-0.0028536308,-0.009639154,0.008583538,0.006712272,-0.009501838,-0.0052533825,-0.006647225,-0.0010252073,-0.008782969,-0.005978848,-0.0034639223,0.0034379095,-0.004140701,0.0038281574,-0.002263281,0.0012759872,0.0029561066,-0.0008115625,-0.006488104,0.009153857,0.007955175,-0.0009865434,-0.008289063,0.00037456083,0.0071031265,-0.0041404716,0.0023119987,-0.00040725115,0.0017373675,-0.00053222914
好看,-0.019161046,-0.0094284555,0.011613496,-0.01807052,-0.0041425116,0.0010633927,-0.0010528483,-0.020534972,-0.015347491,0.0025180432,-0.0056961174,0.0008762069,0.01595316,0.01974766,0.008515409,-0.002233163,0.0039755506,0.015866604,-0.0141924415,0.0085819755,0.009481518,0.0013523643,0.0030202533,-0.02602083,-0.014180451,0.004881319,-0.01136906,-0.0143024,-0.002901539,-0.013549323,-0.011725568,-0.017381145,-0.014916716,0.018420238,-0.005831601,0.019335771,0.0076342733,0.0010920034,-0.008107773,0.0057665757,0.0025812027,0.017468747,0.019354643,-0.0034130046,-0.017470933,-0.010344879,-0.012839368,-0.0024187777,-0.012790213,0.007551122
看過,-0.006244538,-0.003737919,0.011132089,0.00026495702,-0.011780885,0.014197919,0.006526764,-0.0054352735,-0.005205278,0.012115152,-0.012758368,-0.0009733227,0.008684222,0.00091966457,-0.0017571936,-0.010832092,-0.00807471,0.008836002,-0.00085068995,0.008699032,0.00047219882,-0.010498547,0.0044208183,-0.012778389,-0.01440623,-0.0036414466,-0.016993033,0.0058249435,-0.0011892644,-0.001659933,-0.008424647,-0.0027926192,-0.0064594797,0.017488789,-0.0025713574,0.011756756,0.008598251,-0.009835926,0.0013494325,-0.0074557094,0.002838435,0.0022964084,0.015270784,-0.0005388608,-0.012074248,-0.01204614,-0.010577067,-0.00056146894,-0.011145937,-0.0067396117
之前,-0.011814106,0.0009833267,-0.0046444326,0.0016501022,0.005518776,0.0042934283,-0.0070646973,-0.012726425,0.00034027544,-0.0070497124,-0.008654004,-0.0010504473,0.011607789,0.0064204484,-0.0037153265,-0.0053969882,0.0006049346,0.0031357096,0.00070004404,-0.0020094377,0.0073503545,-0.003951405,-0.0018511061,-0.008449396,-0.00659025,0.0028177823,-0.0060458267,-0.009798356,-0.0059744376,-0.0034217362,-0.00096160005,0.003155628,-0.0057372176,-0.0040450534,-0.005403072,0.014513857,0.0029375844,0.0017452883,-0.011137204,0.007495082,0.00066663965,0.004893987,0.010748946,0.00368486,0.0049400846,-0.009862209,0.0016400605,0.0031232657,0.0039125117,-0.009651123
漫威,-0.0024981406,-0.010983906,0.008759124,0.0038311677,-0.0035613633,0.004337523,-0.0047647674,-0.010145623,-0.012389701,-0.0046603736,-0.0019592312,-0.0005762941,0.008815966,0.0014395153,-0.0064772693,0.0051184376,-0.009012806,-0.0037360736,-0.007032049,-0.0052447184,-0.005165041,0.0056540403,-0.005217431,-0.014192491,-0.0068261065,-0.010677803,-0.0022680517,0.0007171266,0.006027488,0.0026392536,-0.011965281,-0.007188417,-0.0052010627,0.0016025467,-0.0045433594,0.016125338,-0.010469371,0.006236588,-0.00021034123,0.009522643,-0.008138878,0.001702146,-0.00053891004,0.0010169927,-0.0138311405,0.0050978577,-0.009704459,0.0025717572,0.0028578225,-0.0045228004
電影,-0.025260134,-0.026525622,0.0007606244,-0.018346846,-0.007407753,0.012212159,0.009659282,-0.025724122,-0.0045332457,0.010714757,-0.009448204,0.0034361929,0.021547258,0.013036213,0.011609682,-0.0106744645,-0.012038297,0.022067843,-0.0035820152,-0.008009455,0.017880434,-0.0034626066,0.000746935,-0.03133029,-0.014808175,0.00392669,-0.013869264,-0.0061610634,0.008884963,-2.6867187e-05,-0.013391329,-0.01677464,-0.019655675,0.016874714,0.0081202425,0.034985088,0.00037559326,-0.017290086,-0.01619056,0.006985846,0.0074931844,0.010105763,0.021069389,-0.009086785,-0.016167087,-0.011831115,-0.023505868,0.006626801,-0.0017637131,-0.008228446
腳色,0.0077616577,-0.004530603,-0.0035891486,-0.0050187316,-0.0036329138,0.0061682016,-0.0065685627,-0.0058372123,0.00021445942,-0.0033283012,-0.006253861,-0.0039471383,0.007944216,0.008227636,-0.004245285,0.00035797982,0.0067841364,-0.006260365,0.008880893,-0.0039070155,0.0013289443,0.00013774658,0.0035907312,-0.0059643215,-0.0023335859,-0.0022236018,-0.0015137836,0.007717664,0.0060476675,-0.004079357,-0.003708578,-0.004381691,-0.0015576972,0.0061251973,0.0014694289,-0.003463869,0.009679701,0.0030997717,0.0048570903,-0.0067707044,-0.004040262,0.006981471,0.003561137,-0.009751708,-0.0052971593,0.0065225433,-0.0076745837,-0.0053022183,0.0065069217,0.0005138623
有所,-0.0033871573,-0.002506467,0.01000332,-0.0058814907,-0.007682718,0.009225023,-0.009164402,-0.00017689074,0.0053122877,-0.009232348,-0.005454542,0.0052936776,0.008768094,-0.0062595997,-0.0023993328,-0.00016361824,0.004830517,0.007004515,0.00847454,0.005344598,0.00916059,0.0009144416,-0.0050530424,0.003675688,-0.0013640514,-0.002424086,-0.008291675,0.004928318,0.0080168275,0.0068763746,-0.006934498,0.006320595,0.0072169537,-0.0011839294,-0.0017333502,-0.0010340869,-0.008509069,-0.008500274,0.00785097,-0.007404675,-0.0044565485,0.008684652,0.008584455,0.0038098057,0.0008763727,-0.005536385,-0.0062497975,0.005180657,-0.009229787,0.0047005583
發揮,-0.00767333,-0.0051369793,0.005922948,0.008903935,0.001917606,0.0099168625,-0.00059076684,-0.005916489,0.0082902005,-0.002175192,-0.007253185,-0.007944018,0.0029333015,-0.00461782,-0.0006504033,0.00030883547,0.0015625817,0.0109156305,-0.0034406323,0.0038566077,-0.0009672115,0.00034565493,0.0023018806,0.007990578,-0.009254307,-0.005704012,-2.9936116e-05,0.008086215,0.004298713,0.0078555895,0.0053558224,-0.008428605,-0.0053339116,-0.0024614187,-0.0071231727,0.0060086744,0.008522797,0.007124012,0.007367488,-0.0074375467,-0.0084483735,-0.0028621175,0.009688025,-0.0017846813,0.0016455471,0.0016239991,-0.0028312462,0.0054351687,-0.010099555,0.008395474
普通人,0.009240676,-0.008028156,0.0008892942,-0.0030919479,-0.0080043515,-0.008001096,-0.005116873,-0.008165172,-0.006268614,0.0028352523,0.0004905898,0.005723421,0.007866609,-0.008084391,-0.0046964264,0.008946829,0.0024831,0.005415521,-0.0043793716,-0.006079479,0.005430301,-4.1936233e-05,0.00031006458,0.009576213,0.0077347266,-0.007348024,-0.0055662696,-0.010070562,0.0057606585,-0.004103862,-0.0006229881,0.00797873,0.0074881995,-0.004559024,-0.008246526,-0.008522556,-0.00531953,-0.00530533,0.0021317436,-0.006158731,0.0027458642,0.009320278,-0.003548439,0.0019470251,-0.0048658075,0.00044458156,0.0044336547,-0.0013268748,0.0039258483,-0.003205324
拯救,0.0029205752,-0.0050389613,-0.0068409806,0.0036111595,-0.0028671673,0.0052669267,-0.0061831605,-0.0020178293,-0.00037995758,-0.0076865596,-0.009216798,-0.007278053,-0.003392254,0.0013505816,0.009833947,0.00064743246,-0.00052372826,-0.0065361955,-0.010681762,0.00729071,0.0024670942,-0.00026206617,-0.002467376,-0.010152208,-0.009353623,-0.0030582375,-0.0069970186,0.0028603517,0.0050305976,-0.006386786,0.0017655507,-0.005233696,0.009211658,-0.00060263986,0.009452024,-0.0059813117,0.009642156,0.0043570404,0.0020422288,0.0060149576,0.00033379573,0.00920143,0.002274005,0.0046540857,-0.0025473938,0.0034841583,-0.0043456014,-0.0043401024,0.009119484,0.0011144959
超能力,-0.0024839079,0.0070460374,-0.0079480335,0.0020760698,-0.00494208,0.00045929116,0.006607326,-0.008678696,0.0072850543,0.0023185394,-0.0049299165,0.0066258633,-0.008481016,0.0035376933,-0.009853545,0.005823343,-0.0015116914,0.0041890326,0.007660761,0.0024018558,0.00016443216,-0.0065071667,0.008606552,0.0006028398,0.0075746546,-0.001130624,0.0017407696,0.0020157222,-0.009352549,-0.0022515822,-0.0017180328,0.005433822,-0.0038189446,-0.00067931163,0.0043106205,-0.004557718,0.0052358042,0.0032831563,-0.0023925304,0.006633517,0.00044655768,-0.007427342,-0.0028670996,-0.008503798,-0.009673328,-0.008675223,-0.0025340498,-0.0038218705,-0.00866936,-0.0050833905
這幾年,-0.003931892,-0.0035841505,0.0069477637,0.0050108065,0.006862899,0.0022076732,0.0028042342,0.0035730216,-0.00046010796,-0.008990786,-0.0056109065,-0.0032030195,0.002004845,0.008929271,0.0011650032,-0.006349946,0.004947312,-0.009613129,0.00025034574,0.005219118,-0.009055024,0.0074047637,-0.002365633,-0.0037574447,-0.0058140615,0.00872724,-0.0044192863,3.8189978e-07,-0.009047282,0.0075861868,0.0004947123,-0.0062663825,0.0052462365,-0.0062661367,-0.0034859914,-0.0016761898,0.006503377,-0.009104417,-0.00028995718,0.009394968,-0.007849876,0.001341374,-0.0040046605,0.006422191,-0.0043804697,0.0026524584,0.0028322688,0.0007009023,0.0016884202,0.0017278196
英雄,-0.009252797,-0.008139784,0.0057228315,0.0037412893,-0.011847889,0.011666348,0.008235014,-0.004753148,-0.010970529,-0.004661785,-0.013117864,0.005084264,0.005522571,0.0030663114,-0.004908306,-0.0011376902,0.0075947247,0.008405159,4.604187e-05,-0.0025015222,0.010875025,-0.012081112,0.0011167408,-0.0043235836,0.0006358594,0.0018477611,-0.014226014,0.004564967,6.6097455e-06,0.0013037362,-9.147392e-05,-0.013374178,-0.009671021,0.00868027,0.0047554383,0.008747141,-0.0049101175,-0.005437276,-0.008943507,0.0055833035,0.0066850726,0.00894893,0.00485184,0.004391081,-0.016048873,-0.010193422,-0.0068868212,8.5028885e-05,-0.009156032,-0.0064343624
一路,-0.0056975014,0.0054361145,-0.003479142,0.0019061636,0.0056089708,0.008957978,0.006542085,-0.004512057,0.0014362474,0.0026726178,-0.00453827,0.00718392,-0.0059032766,0.0062664393,-0.0077114077,0.0045445566,0.0019945623,0.0072928546,-0.0015516108,-0.0023799888,-0.004078473,0.006019307,-0.0066013127,0.0023234042,0.0036764275,0.008649423,-0.002227998,-0.0060131955,-0.008966406,-0.0095456885,-0.0026839774,0.0018474978,0.0017714935,-0.008712198,0.009618666,0.005834724,-0.0028667233,0.005343144,-0.006422991,-0.002670519,0.008234965,-0.0026351204,-0.008133558,-0.0024131727,-0.0027649505,0.001828115,-0.008530552,-0.0034379642,0.0045697945,-0.004322077
看下來,-0.0049758223,-0.0036640165,-0.009692591,0.003113911,0.007682923,0.0036974626,0.0016891632,0.007326771,-0.009106923,0.008832181,-0.006478688,-0.0058403458,-0.0019500145,0.0054467507,0.004054872,-0.01009757,-0.0042318003,0.0035747343,0.0044574607,0.0069783404,-0.0072346083,-0.0038874904,-0.0022957434,-0.006259238,-0.0082853325,0.00046535232,-0.0040446892,0.0036849356,-0.00046490316,-0.0037565257,-0.009462708,-0.0047291503,-0.009741569,0.0063206498,0.009931259,0.007840754,0.00568467,0.008632964,0.0084048165,0.0028358179,-0.0018261939,-0.005357006,-0.00658264,0.0025471414,-0.007268088,-0.0038734272,-0.005707962,-0.005079527,-0.006491358,0.0044668196
老實說,-0.0056082327,-0.0055537974,0.0016926466,-0.0069646975,-0.008803922,-0.006030232,0.008847161,-0.010809057,0.007717631,0.00050885306,0.00873552,-0.008653562,0.002256986,-0.0063890996,-1.1844162e-05,0.0031000748,-0.007751347,-0.008011162,0.0051631615,-0.009752473,-0.006166959,0.00085442374,-0.0037842216,-0.0010601012,-0.0018834886,0.007324904,0.0064245993,0.0031511965,-0.0068339854,-0.0076299133,-0.00049606926,-0.010430461,0.0072264397,0.0069482992,0.0041973433,0.009259875,-0.0017243888,0.00036210314,-0.0064167157,-0.008081321,-0.008791547,-0.0036164538,0.007819867,0.008799403,0.0074196253,-0.008406149,-0.004254794,-0.0016284402,0.0075027975,0.0077564777
已經,-0.003954925,-0.0012271407,0.0070183156,-0.0016698577,-0.006311867,0.009000149,0.012056776,-0.00910287,-0.011782079,-0.007913208,-0.013626783,-0.0052565187,0.001919667,0.0012623967,0.0072671715,-0.0039823726,-0.0040994086,0.005752148,-0.0030389035,0.0093457,0.00062314066,-0.0014887064,-0.0081896605,-0.015996752,-0.009410511,-0.0069571924,-0.006264318,-0.0061173746,-0.007252627,-0.0042486787,0.0021479018,0.00022398114,-0.004602777,-0.0039988537,-0.00024909727,0.006521634,0.0017587868,-0.011090919,-0.011740457,0.0042441892,-0.0067785317,-0.0039388444,0.013066254,-0.00053267775,-0.002863132,-0.0005800408,-0.0016280947,-0.003027005,-0.003972793,-0.007533934
原本,-0.0045834053,0.0023317952,-0.00044739185,-0.008591063,-0.011634483,-0.005025347,0.010928035,0.0020280825,0.00559554,0.000308698,0.0010986197,-0.00607337,-0.0035273093,-0.005565809,0.00024098664,-0.00436209,0.008609987,-0.0010735011,-0.0104544265,0.009678947,0.010941185,-0.00418258,-0.0017226178,-0.009123921,0.0022949206,-0.008648986,0.005349896,0.005192147,0.00945759,-0.01057564,-0.002747115,-0.007440604,0.0035544066,0.0063724103,0.005746934,0.007137543,0.0094111515,-0.0028855226,0.005166973,0.0063775005,-0.0008115776,0.008865004,-4.1238618e-05,-0.0017040543,0.0059681125,0.0018301869,-0.0017929035,-0.0004612014,0.002925489,0.0034518235
不行,0.0015219006,-0.0026746918,0.0050485306,-0.0058320393,0.0032925885,-0.0060930247,0.000693199,-0.0011581937,0.005513775,-0.0025112217,-0.0029579415,-0.009657913,-0.0051086405,0.009983499,0.0036274625,-0.011554132,-0.0034379575,0.00320474,-0.00584043,-0.0028290492,-0.008435565,-0.0037875127,0.0054912814,0.0024373506,-0.00481684,0.009241201,0.005946957,-0.007764818,0.009411743,0.008034856,-0.0013656478,0.006710883,0.006796881,0.011741318,0.008060067,0.013188999,-0.006214423,0.0068211877,-0.0056729927,0.004958857,-0.003801687,-0.0005589339,-0.00065556663,-0.0018642029,-0.0075677563,-0.007263382,-0.0002233277,-0.0068241535,0.0066318642,0.0037639218
印證,0.009374255,-0.0015483634,0.0030859464,-0.0028844127,-0.000758853,-0.00043107936,-0.006212269,-0.0024604069,-0.009864302,0.007613709,-0.008847134,0.006690374,-0.002853908,-0.007760481,-0.006192628,-0.0039860844,0.0028907896,-0.0005805607,-0.0009961845,-0.000594404,-0.0047189784,-0.007326333,-0.007849752,-0.0015382144,0.0055322177,-0.00815215,-0.0011537817,0.009485267,-0.00029754196,-0.008067108,0.001649226,0.0028596828,-0.007856029,0.0039954726,-0.0039750678,-0.009734476,0.0031304646,-0.0046534506,0.00806132,-0.009871314,-0.002008473,-0.0034517872,-0.0056192176,0.0091725895,0.00601951,0.006774731,-0.0049759606,0.0063534603,0.006494745,-0.002418428
心態,-0.003398363,-0.005244708,0.00030144668,0.0012938911,-0.009386149,0.0051955357,-0.0023497143,-0.009577999,0.0013738197,0.002437653,-0.0048524654,0.0065769237,-0.00589677,-0.0077340873,0.004479344,-0.0026882116,-0.0013554475,0.0036278379,-0.008097864,-0.0066081593,0.008591921,-0.008461103,0.00078395527,-0.0018428307,-0.0072770617,-0.009134135,-0.010658373,-0.009245613,0.005856268,-0.0006885505,0.0010349309,0.0030628508,-0.009451657,-0.0001873344,0.009695016,-0.00043907663,-0.0017381973,-0.0060945223,-0.0030971118,0.0002984118,0.00096645684,-0.004825699,-0.0077009103,-0.0056545106,-0.0062534353,0.00718583,0.0077920975,-0.003923052,-0.0033791305,-0.0095099695
戲院,-0.010710263,-0.0017168578,0.010719923,-0.005483393,-0.008907326,0.004584605,0.0026504665,-0.002241513,-0.0013942439,0.0014082122,-0.0009014232,-0.006029141,-0.0039198203,0.002818895,-0.004584628,-0.0015207662,0.005881007,-0.004066789,0.0012645723,-0.006668752,-0.004030057,-0.00397077,0.0033004896,-0.009069945,-0.009777497,0.004792846,-0.0016223913,-0.0016031907,0.008293096,-0.0003548004,-0.011171493,-0.014168553,0.0027769336,0.012590587,0.0104235625,0.011458871,-0.00947046,0.0007458558,0.001893202,0.0065519316,0.007490951,-0.002801714,-0.0016572097,0.0055973306,-0.00505007,-0.00399228,0.001457986,0.00481165,-0.003114545,0.003310625
沒想到,0.008118177,-0.011710888,0.008982655,-0.0012617725,-0.0034597188,-0.0025752143,0.008105998,0.003941491,0.0020047836,0.0058422247,-0.0048141107,-0.009428174,0.0038309,0.002583002,-0.0035252743,-0.0065843617,0.0036852171,0.0023268615,0.006988419,0.009005164,-0.0058234166,-0.00047677502,-7.848347e-05,-0.0025987863,-0.0008261515,0.00720765,-0.012078213,-0.010352088,0.0063303667,-0.010624074,-0.005957876,-0.009250966,0.0005963418,0.0033952545,-0.0019832712,0.011126063,-0.006543541,-0.008429871,-0.00969667,0.0027744162,0.0014363669,0.0042331233,-0.0070157326,-0.0068848697,0.004299356,-0.0015440297,-0.0005183965,-0.007177496,-0.005775642,-0.010088354
需要,-0.008723033,0.005217963,0.010263944,0.0071471264,-0.011532965,0.0045601116,-0.0035789937,-0.008193361,-0.011799306,0.007761306,-0.01035944,-0.0074784183,0.009469897,0.0070880703,-0.0030356236,-0.01178608,-0.004781102,0.0097639,0.00081605,-0.003971338,0.009642489,-0.0099825105,0.0040151575,-0.013265551,-0.009721472,-0.006465174,0.0006561097,0.001513369,-0.006355539,-0.008095617,-0.0083601335,0.0047315885,0.0067744376,0.011697848,-0.0022361542,0.009468337,-0.003634474,0.0060851215,0.0008172602,0.0060670343,-0.007629448,0.006601006,0.010513117,0.00027055503,-0.006410771,-0.005220691,-0.01095993,-0.0011980117,-0.00039674694,-0.0043232082
反派,-0.0020297186,-0.0066700303,0.0054297396,0.0026490132,-0.0049476214,0.0056714155,-0.001324021,0.0012464144,-0.0094228685,0.00053216564,-0.0055713668,0.0046433317,-0.0063346615,-0.003213473,0.0029098014,5.1705603e-05,0.0025959,0.00454989,0.0054666405,0.00883998,0.007997993,0.006532585,0.004735387,-0.0040223124,0.006921322,-0.010532396,0.0040604575,-0.0037422208,-0.0058183824,-0.0033496772,0.00393063,-0.0012624051,-0.008373193,-0.0051717055,-0.0006594602,0.013013491,0.006494781,0.0055712187,-0.007868751,-0.009876597,0.0040387264,0.005226713,-0.0037951504,-0.009850667,0.0012008589,0.0016985597,-0.008393971,-0.007785256,0.0045997,-0.009415571
支撐,0.0023573227,-0.0008546224,-0.00603771,0.0047048205,0.0050303736,-0.0013742306,0.0036423968,-0.009237097,0.00029709618,0.008254393,-0.003845082,-0.00684495,0.010049102,0.0024533882,0.0028808105,-0.0029025336,-0.0036934267,0.005023123,-0.0004070625,-0.008979245,0.0014328879,0.0056021833,-0.004958708,-0.0074767033,-0.0058054747,0.008678841,-0.0054038875,-0.00851948,-0.0026239995,-0.00816192,-0.009644653,-0.0024655242,0.008876228,0.008596653,-0.0036764618,-0.0023826414,-0.008118334,0.008432457,-0.0068296012,-0.007501435,0.0022893164,0.009585853,0.006586174,0.006352877,-0.0055987677,9.163136e-05,-0.0023172793,0.0018388169,-0.003521393,-0.0024263768
五分,4.7662514e-05,-0.0018940149,-0.00061445497,0.0052647563,-0.009307746,0.0037112907,0.00030820613,-0.006739465,-0.00982839,-0.001731964,0.0045061926,0.009542836,0.008104706,-0.005787107,0.009565934,-0.0015131992,-0.0054495046,0.003566628,-0.0038169317,-0.0021159602,-0.0062049623,-0.0050391927,0.0030927144,-0.00547219,-0.0069823014,0.0047801314,-0.008859102,-0.0033659814,0.004327642,-0.009672126,0.00789607,-0.0068521965,0.009106209,0.005690418,0.001553421,0.00749241,-0.008219155,-0.008510474,-0.009148458,0.0026981556,0.005598377,0.0015166812,-0.005271435,0.0029881182,-0.005152542,0.0054114563,0.0010148926,0.008635886,-0.0036293752,0.0029221175
尤其,0.00024746143,-0.008467592,-0.001410023,-0.00891663,-0.001131648,0.010339796,0.0019860368,-0.006081576,0.0036582665,0.0065110605,-0.000432843,0.0014791097,-0.00031574466,0.0026725833,-0.0014485058,-0.002289539,-0.004374354,-0.0035046018,0.00542818,0.0055002808,0.004685482,-0.0027275386,0.006951086,0.0034421792,0.0039423085,0.0075778994,0.0053930287,-0.0075279614,0.0089567145,0.004243871,-0.0007691905,-0.010988271,-0.007943002,-0.0029544737,0.0011005908,0.011787679,-0.007845881,0.0072775264,-0.010181555,0.006975752,0.0044505703,0.0032727544,0.013553383,0.005176781,-0.011932889,0.004461427,0.0007793645,0.008344747,0.008625645,0.0036554802
超人,0.0087416,-0.0026489303,-0.0015932586,-0.0038613987,0.005846878,0.0027786032,-0.008226568,0.0013638134,0.006502159,-0.008970054,0.0027920154,-0.005011066,0.007358096,0.0075068846,-0.007696415,-0.008581433,0.0019657176,-0.0034162244,0.00888321,-0.009586037,-0.00439663,-0.0013058592,3.343304e-06,0.0010706969,-0.010348157,0.003246539,0.0072256895,-0.008695811,-0.0052620163,-0.0073154625,0.0027034485,0.0045096315,-0.004766703,0.0034484381,0.005515019,-0.0061472147,0.0022849387,-0.002216348,0.0034051568,-0.00810187,-0.004081621,0.0036395579,0.0068962183,0.0023435927,0.0030041018,-0.0043464433,-0.0003907577,0.007908186,-0.009280675,0.006118646
比賽,0.008250345,-0.00984848,0.008716744,-0.00823503,-0.006817099,-0.0044652745,0.000773718,0.0029819768,-0.008105524,-0.00085654826,-0.0064232005,0.008733446,-0.008174353,-0.0012744908,-0.004909578,-0.00648802,-0.0033103633,-0.0073437486,-0.00178618,0.008673371,-0.00774768,-0.003896193,0.0022360468,-0.0046428316,0.0016374271,-0.004236779,-0.006926439,-0.0031407282,0.009105274,-0.008820619,0.009549649,-0.00094621227,0.0018449232,0.004255994,0.004175512,-0.0013344227,0.008549632,0.0075208507,0.008806526,0.0019598992,0.009502706,0.0037401181,0.0055457135,-0.0015730334,-0.009577746,0.00790339,-0.0038610385,0.00039906733,-0.0054747523,-0.0011804921
跑步,-0.0049757385,-0.0020678244,-0.006639603,0.006940324,0.00046628423,0.0051228474,0.0038124654,0.0043404135,0.006938501,-0.0073589655,0.0025151952,0.007843932,0.0099110585,-0.0063409195,-0.007944896,-0.0035088551,-0.006576265,0.010035138,0.007194812,-0.0028660025,0.004063797,-0.0045166076,-0.0094867945,-0.00788734,-0.0008592666,-0.0056942343,0.003234242,-0.0042696735,0.002570257,-0.006692899,0.0039287475,0.0059389747,0.0071373824,0.007162605,0.0063280407,-0.001026888,0.00056736276,0.0034477387,-0.009039549,0.006620721,0.0025143686,0.0034164435,0.0025860844,-0.0063478784,-0.009629401,0.0007665525,-0.0025377695,-0.0030443927,0.008904341,-0.009181311
帥翻,-0.0046376935,-0.008145657,-0.00028266673,0.0011914609,0.0009234495,0.0028587172,0.008942613,-0.0022261075,0.0044595907,-0.008186557,0.0010100415,0.007251194,-0.008649355,0.0031996386,0.0049949107,-0.008742019,0.009025159,-0.006032099,-0.0037119952,0.0030233623,0.0031404025,-0.005029204,0.008655766,-0.007816035,-0.0046249675,-0.0016164512,0.0075434363,-0.0072097923,0.0012609028,0.001563285,-0.0009322098,0.00030285784,-0.0003110638,0.005707181,0.006293972,-0.0018829344,0.001344217,-0.0047730743,0.005501836,0.004938838,0.0073693455,3.936255e-05,0.003902877,-0.0032958472,-0.0025117013,-0.001839478,0.007931088,0.00279777,-0.001386502,0.00058827497
記得,0.006507496,0.004279525,0.0036777158,0.003481399,-0.005474086,0.010422236,0.007646087,0.006969549,-0.003402805,0.007166019,0.0019493126,0.0020984916,0.010346497,0.0064115096,-0.0054192296,0.0038387736,-0.0025056507,0.003957248,-0.0014716551,-0.0043602795,0.0067590857,-0.00843402,-0.008449857,0.008357561,-0.0045176377,-0.0006411335,-0.008709526,0.0025587196,0.0074408785,-0.009733108,-0.0016049364,-0.010151019,0.0005847451,0.00642411,0.007090858,0.0084528625,0.005034562,0.008954082,-0.0023579092,-0.0075709657,-0.0028363338,0.00654691,-0.0012474344,0.008260972,-0.00909623,-0.0060828403,0.001184949,-0.008670371,-0.0063223774,0.003721217
留下來,0.0007879934,0.008523927,-0.006761574,-0.0066377646,-0.0017576452,-0.0058171307,-0.0010263202,0.0002573432,-0.0057119117,0.0021688459,-0.00082682015,-0.005445471,-0.008827377,-0.003165335,-0.0005294414,-0.008007274,-0.0032374118,0.0035330276,0.00033608914,-0.0024558047,0.0045587863,-0.0059813266,0.0020397587,-0.009755766,0.0005501921,0.0021648293,-0.0059486106,0.0031218554,-0.0029417519,0.008151896,0.003596382,-0.009863435,-0.0092903,-0.0013854197,0.0010966082,-0.007873748,0.005721404,-0.0072263633,0.009582655,0.007682801,-0.009470561,-0.0053052227,-0.004359464,-0.007955566,-0.008501539,-0.0036245883,-0.005913658,0.0051636137,-0.0038098593,-0.007256999
彩蛋,-0.0016791858,-0.010826547,0.008870831,0.0029779414,-0.0099875145,0.0035456226,0.0008478831,0.003474113,0.004002786,0.011972503,0.004303761,0.008773287,0.003757298,0.0064551337,0.0019326278,0.0013211836,0.007830471,0.012804014,0.0017587373,0.0069006053,0.0033823485,-0.0073528504,-0.009907195,-0.01651915,-0.008466766,0.0045584496,-0.009169339,0.0019087057,-0.003715956,-0.001373892,-0.011833344,-0.010272363,-0.0065948456,0.010452777,-0.00032770613,0.0022441172,0.004041746,0.00076589617,0.0005346655,0.0035501642,-0.006580756,0.007963138,0.0041613025,-0.007512227,-0.0066061597,-0.007527138,-0.0109275505,0.008588135,-0.005192133,0.0074274675
巴黎,0.00094768143,0.0038018052,0.009556854,0.008661146,-6.6185654e-05,-0.0013508216,0.0024790494,0.0066180546,-0.0011636945,0.009302203,0.008442693,-0.0016103681,0.0029429419,-0.0009662461,0.0008904129,0.004639597,0.0068000574,0.0007241584,-0.0025123311,-0.004343831,-0.0028272427,-0.0030918645,-0.008494927,-0.004120695,0.0047872453,0.0040285923,-0.005520232,-0.0049791816,-0.007538695,-0.0034564782,-0.007107191,0.0011334469,0.0012951584,0.002557345,0.006223073,-0.0064989068,-0.00014490458,-0.0067234198,0.0057527525,-0.009221082,0.0021521666,-0.0006389425,-0.005987445,-0.0044126683,-0.009995349,-0.0069827847,-0.0018485438,-0.008513868,0.0036165914,-0.00875848
美國隊長,-0.0035649075,-0.003244318,0.0068189665,-0.006631021,-0.0012550453,0.0088769775,0.0067298603,0.008261006,-0.009233427,-0.008342258,-0.008559027,-0.00021662864,0.0005344142,-0.0068637463,0.006609392,-0.0023251437,0.0017603782,0.0046902387,0.008082619,0.004113611,0.00026411447,0.0071927123,-0.0050623673,-0.009639791,0.006645233,0.00876537,-0.010432447,0.003002346,0.008503446,0.0065913084,0.008773789,-0.005402242,0.007923933,0.006804288,0.01012559,-0.0013563131,0.002535058,-0.0004121413,-0.0060435603,0.00500209,0.0044690175,0.002948272,0.0010942692,0.00382862,0.0011850734,0.0033034172,-0.007738175,-0.009475442,0.005524123,0.0029754739
比較,-0.005077318,-0.017429778,0.0034868163,-0.0093247555,-0.0018840877,3.237676e-05,0.0017074703,-0.012835733,-0.009118065,0.009287943,-0.0006890055,0.0017546815,0.012029488,0.017475493,0.003818832,-0.009370206,-0.00306053,0.006255785,-0.0079068635,-0.0029060354,0.007424034,-0.01007844,-0.0004834349,-0.020255672,-0.015614409,-0.006792491,-0.014034411,0.002576071,-0.0023058723,-0.000948731,-0.012127068,-0.015281224,0.004222557,0.003102465,0.0126361465,0.005217652,0.003039977,-0.0064674993,-0.012047966,0.0062459344,-0.00049269776,0.012377782,0.010110979,0.0011450651,-0.0112963775,-0.010800957,-0.017077513,0.00045669387,-0.006417848,-0.0029269622
高峰,-0.0029655849,-0.0076076286,-0.008851386,-0.0023728486,0.0030075319,0.006586122,-0.008777048,-0.010159697,0.0022834695,-0.008056365,-0.008691749,0.0058926023,-0.0026653914,-0.00096134195,0.006640365,-0.008764465,0.005150176,0.0050215633,0.007014811,0.00565897,-0.008877943,0.008277238,-0.009120913,-0.008292107,0.00065650843,-0.0020026742,-0.0017904438,-0.0045353384,-0.006829811,-0.009671292,-0.0003146696,0.0045724707,-0.002885791,-0.0016353293,0.0018015946,-0.0009119935,-0.0052794823,0.00064938975,-0.0064607216,-0.009370559,0.00024382533,0.0016404224,-0.007445443,-0.0022807934,0.0045597106,0.00780931,-0.001118897,-0.005274207,0.0049084276,0.0005520026
後面,-0.01434648,0.0019076172,0.0008265414,-0.008668523,0.00045283668,0.009244587,-0.0035248168,-0.0040659774,-0.0138782095,0.00589473,-0.007928231,0.0072475905,0.015250219,0.0073955064,-0.0065216636,-0.0036729379,-0.005020668,0.009891368,-0.00030418325,-0.006679052,0.0051318407,-0.008655191,-0.0037402704,-0.012261388,-0.013054119,-0.009520257,-0.0051353257,-0.012767468,-0.0022980806,0.0067744013,-0.0015052774,-0.012889112,-0.008272079,0.008799654,-0.0032845293,0.017900195,0.0011954443,-0.004925516,-0.011208115,0.008543717,-0.0044570104,0.014945172,0.016003633,0.0066077174,-0.0042717457,-0.0063137654,-0.0052246545,-0.0020106032,-0.005009445,0.0001993672
有點,-0.008339416,-0.013678042,-0.0026025688,-0.006460011,-0.0076003014,-0.0012753011,-0.0032962696,-0.0054043317,-0.000954573,-0.004637462,-0.017435504,-0.00032384237,0.0021853982,0.014054869,-0.0028952176,-0.0099110175,-0.005272764,0.0030041626,-0.009149284,0.008005118,0.0014052682,-0.009074115,-0.0075472905,-0.011839528,-0.015407901,-0.00819178,-0.01580679,-0.0063145296,-0.00055327965,-0.0022365528,-0.011378741,-0.009286569,0.0017717815,0.014839816,0.005048343,0.022384835,-0.0004299845,-0.002743911,-0.0025927862,0.0070371837,-0.0028134168,0.012795767,0.01565599,-0.0014368659,-0.015537791,-0.0043622265,-0.010765743,0.00027605583,-0.008328192,-0.0004825877
混亂,-0.005072244,-0.0012311111,0.0023858158,-0.005124837,-0.0062434743,-0.008908792,0.00989362,0.003116412,0.002784599,-0.0026362778,0.0032950037,-0.0017400364,-0.0013270589,-0.0047427886,0.0035227223,-0.008364441,0.0025582341,-0.009392455,-0.00818978,0.0034559937,0.0028313126,-0.0075056357,0.00823415,-0.005273398,-0.005004731,0.0076444424,-0.0105310045,-0.0017145408,0.0043933876,0.0048950324,-0.008162662,-0.0025066836,-0.0076064127,0.00231637,-0.0088116275,-0.0058302185,0.00096710504,0.0065019154,0.006419667,-0.008643558,-0.006613754,0.010298836,0.009536978,0.009550633,0.003798244,-0.002607707,0.00875402,-0.0018444455,-0.0024027645,-0.0003630676
打鬥,0.003420614,-0.004821997,-0.0047033885,0.0022740376,-0.0007859832,0.0019538645,0.01149487,-0.009562089,0.0016630808,-0.0023547302,-0.013121479,0.000794183,0.012417968,0.009365741,-0.0059609073,0.0017167835,0.00835914,0.011563471,-0.008046849,0.009658113,-0.0018703532,-0.007252823,-0.004271286,-0.0022742385,0.0015689939,0.005804042,-0.0075959256,-0.0025176583,-0.008667939,-0.007927967,-0.00011183796,-0.0113614965,-0.009362973,0.002999862,0.008630982,-0.0014466352,-0.005051029,0.006951913,0.0066020405,-0.008877142,0.010661144,0.0044954033,0.0014241901,-0.005004833,-0.013022922,-0.01213416,-0.012329549,0.010276851,-0.0035080188,0.007615959
緊湊,-0.006136998,-0.0023901234,0.0034606748,-0.009072016,0.002597262,-0.00013645465,0.008113269,-0.0018102786,-0.0037344361,-0.00057543354,-0.005453045,-0.0022798826,0.0048255273,0.01264359,0.009827154,-0.012098101,0.008049712,0.015018796,-0.0059585855,0.010001488,0.013794347,0.0033962992,-0.0006421481,-0.019830074,-0.004162581,-0.009946284,-0.010181953,0.0024016823,-0.0024261558,-0.009658036,-0.011358697,-0.015700243,-0.013837005,-0.0019154501,-0.00588032,0.0055847685,-0.0038582706,0.005093638,0.0052758255,-0.0033527196,-0.0019732143,-0.005850431,0.016478477,-0.0026055218,-0.015127678,-0.009533849,0.0026072657,0.0027538096,0.0025834,0.0026118103
心情,-0.0051163696,0.005035874,0.0054404,0.0010914089,-0.009524039,-0.0020456624,0.0076347957,-0.012369797,-0.0036590549,0.005671362,0.0005601662,0.008912975,0.009671095,-0.0016178783,-0.00030567174,-0.0051796543,-0.0039755045,8.768406e-05,-0.004378089,0.009960804,0.002630245,0.0009551804,-0.006522699,-0.008042648,-0.01025796,-0.008198034,0.0020492154,-0.0010100149,0.008188894,0.005109425,-0.009549395,0.0037737356,0.005999557,-0.005607865,0.0052222777,-0.0018629737,0.0018040077,-0.010040937,0.005294361,0.0072569326,0.009092784,-0.007848032,-0.0034433599,0.006444164,0.0010290699,-0.010650582,0.0034313858,0.010008063,-0.006896295,0.008881892
失落,-0.0067805354,-0.008877823,0.004921124,0.0031902916,0.0007480758,-0.0057770773,0.003025463,0.0042093615,-0.0019398112,0.0075910054,0.0027315735,0.00077865337,3.818306e-06,-0.003448317,-0.0010749076,-0.0016665692,0.0074312636,0.000910072,0.0043291436,-0.009303735,-0.0036372428,0.00048075893,0.0030335153,-0.0016358647,-0.006104706,-0.0049248785,0.008567493,9.255442e-05,0.0061834115,0.002662124,-0.001865422,0.0015010247,0.005909282,0.009340278,0.0069944602,0.0054047345,-0.0022660387,0.008592721,0.0015190294,-0.007929515,-0.008534504,0.007413578,0.003120322,-0.0031437103,0.0016885137,0.0041295714,0.0057625114,0.0039693774,-0.0048782304,-0.0076980474
相信,-0.0049349223,-0.011508932,0.001931716,-0.009835794,0.0032443418,0.010071546,-0.008569204,-0.0011808294,0.0046773255,0.0071001607,-0.008022012,-0.0043339566,-0.0060783904,-0.0061467076,0.0006050547,-0.00023686518,-0.00504015,0.004492272,0.008179552,-0.0016492498,0.0015395425,0.005506429,-0.007490025,-0.012711373,0.005290343,-0.0018999882,-0.009737176,0.004236145,0.003381957,0.0065869624,-0.009113998,0.0007605712,-0.007444282,-0.004496891,0.010383527,0.008662116,-0.008237091,-0.0033515107,0.008694324,-0.007709063,-0.00834431,-0.0023137233,0.0013853766,-0.0069184965,-0.01102144,0.006120411,0.006133044,-0.0074139237,0.0062914477,-0.0031390232
下一集,0.0062017147,-0.010314579,0.01075611,-0.0075348187,-0.0041760756,0.0036993846,-0.00846095,-0.003390832,0.008142735,0.00420042,-0.0036167828,0.0018930794,-0.0069879517,0.007884914,0.008792527,-0.009548108,-0.009994942,0.004557557,-0.010510673,0.00918938,0.0002148975,-0.0029623136,0.008353224,-0.0061696856,0.004015132,-0.0067428555,0.00075287354,-0.010204518,-0.0068704383,-0.009951422,0.0066937804,-0.0085345,0.002096971,0.011208441,0.0073643737,-0.00022205795,-0.005949761,-0.00822953,0.004205008,-0.002628616,-0.0051748496,0.006023725,0.0038396881,-0.000609195,9.7779324e-05,0.0033891005,0.0021011112,-0.0074787247,-0.008774273,-0.0025053082
精彩,0.0017215441,0.0001939715,0.007907931,-0.012094914,-0.006979964,-0.0007139051,0.002861227,-0.00033523864,-0.015260522,0.0026010629,-0.014944493,0.009454642,0.014218278,0.008260552,0.00084517355,-5.574229e-05,0.0023223534,0.0166463,-0.009562475,-0.0054376745,0.0035772722,-0.009876183,0.0024136358,-0.017376993,-0.0041263765,0.004698173,-0.019274075,-0.0071998215,0.00626875,-0.010243008,-0.016684685,-0.0078405095,-0.014397906,0.01833063,0.008618418,0.017376307,-0.0021215144,-0.0060188053,0.0007268248,-0.00969532,0.0074530295,-0.0043326872,0.012735159,0.003623459,-0.009190304,0.00042648832,-0.0023266654,-0.006551785,0.0030062757,0.0060031344
人物,-0.007414323,-0.006604222,0.003134629,-0.009985184,-0.0061500343,0.010740637,0.011072825,-0.0015697798,-0.00753672,0.009276851,0.002383783,0.0030510304,0.010537225,-0.0014492226,0.0047754482,0.00031322357,0.0067149014,0.010909143,-0.00089145004,0.006381188,0.0009689061,0.0014566659,0.0026023139,0.004141927,-0.0025930097,-0.00077441754,-0.0022962256,-0.0011812086,0.0018634073,0.004941892,-0.005697091,-0.007437266,-0.00057007006,0.007258398,0.00026504166,0.0063476157,0.0013270228,-0.006272861,0.00023626116,0.009002027,-0.0072785504,-0.0068353415,0.008055127,-0.010068251,0.00077596045,0.00021115196,-0.00277968,-0.007160313,-0.0019082456,-0.007966463
整片,-0.0027931991,-0.0021661767,0.0053134374,0.004059683,0.0040355753,-0.00091925863,0.006741085,-0.007078332,-0.0010529627,0.00045733276,0.004544686,0.0063599143,0.0039147106,0.010272546,-0.005775061,0.0009401958,-4.4416007e-05,-0.003709312,-0.0005304661,-0.0052729966,0.0048101787,0.005370619,0.00094568706,-0.0026951714,0.006414302,0.0039743944,-0.009590921,-0.0067432183,-0.00035474787,0.0011910218,0.0052498165,-0.004853709,0.0021456967,-0.008624666,-0.0071646525,-0.006268362,-0.004965459,-0.0030526945,-0.0038756074,0.006199465,-0.0031201355,-0.0061464305,0.0055900323,-0.0006401652,0.005650164,0.0074675726,0.0040869988,-4.7794427e-05,0.0037451547,0.008036362
無冷場,0.0045285663,0.0011910729,0.004138573,-0.00030128306,-0.01109401,0.009538975,0.0032673434,-0.00088494475,-0.0100206705,0.01012608,-0.014213695,0.009485664,-0.0050161104,0.01451401,0.00041763516,-0.005783593,0.0032044079,-0.00037504514,-0.011594111,0.0105597535,-0.0065714666,0.0084902635,0.005801911,-0.016937984,-0.0073720412,-0.011399654,-0.0047905184,-0.011021116,0.008030852,0.007280536,-0.0033810865,-0.01123109,-0.0042856364,0.007835224,0.005833121,0.006847219,-0.007342571,0.0059303683,0.000533802,-0.008917881,-0.0011701427,-0.0019110852,0.00038415467,-0.0070678378,-0.014082525,0.0046530897,0.0058461735,0.010175405,0.0059014983,0.00016441704
不錯,-0.009287844,-0.016771307,0.0027732125,0.001327273,-0.0043339715,-0.0045739976,-1.2481863e-05,-0.004885008,-0.0067023244,0.009314861,-0.01205564,-0.0066443617,0.013789433,0.008615125,-0.0005072925,-0.016323911,0.007826555,0.008373203,-0.0008214676,-0.003638939,0.015533921,0.0025989953,0.00038733133,-0.020881668,-0.01036204,-0.0010895126,-0.0004399605,-0.005671839,0.00480459,-0.00900875,-0.00054243946,-0.012552054,-0.0050201025,0.008359855,0.010113655,0.0075299703,-0.011095273,-0.0032179074,0.0047334284,0.0022810395,0.008210553,-0.0040018535,0.0021809794,0.0052716173,-0.010839628,-0.0055357846,-0.008637786,-0.0028835847,0.00661286,-0.004813524
值得,-0.0030243383,-0.007023874,-0.004592935,-0.011564219,-0.0046901563,0.003338129,0.0065450454,-0.0057217097,0.0043937275,0.0137301525,-0.012039482,-0.0033633702,0.013027389,0.0050085685,0.0038199902,-0.0026668725,0.0034032553,0.01645785,-0.004648159,0.008121349,-0.0004239783,-0.013490733,0.0038833201,-0.010918873,-0.0075610825,-0.00020007967,-0.0062983194,-0.011294699,-0.0025611622,0.0008219565,-0.011243172,-0.0153580075,0.0036127917,0.0043165963,0.004663953,0.007470545,-0.01102028,0.0024976358,-0.00081433775,-0.0038546629,-0.0015692011,0.007097089,0.015062285,0.0032301403,-0.008735669,-0.0049064634,-0.012241275,0.0068028485,-0.0030741568,-0.006970298
電影院,-0.0136200255,-0.0036492846,0.0025203414,-0.00736039,-0.011016666,0.012620868,0.0032027287,-0.0031695697,-0.009824628,-0.005818874,-0.003808765,0.009313667,0.01605456,0.007514102,0.010142058,-0.014786935,0.006481044,0.014413809,-0.0023502712,-0.0020914795,-0.004223468,-0.011092223,0.008544378,-0.012453092,-0.0043748976,0.0008893253,-0.018653715,-0.0068521956,-0.004247576,0.00322428,-0.019050824,-0.007199714,-0.012498301,0.0076885954,-0.007126957,0.018982582,-0.0061651883,-0.0037615215,-0.011144418,0.00033120613,-0.0005035753,-0.0030239394,-0.00096847286,-0.009261332,-0.0085954,6.917076e-05,0.0021862355,0.009107317,-0.00802265,-0.0034907388
一看,-0.0048902193,-0.006721306,-0.0073844325,0.0026480663,0.00047060943,-0.002320249,0.005969065,0.0032491514,0.0062644198,-0.001040988,-0.009509462,-0.00013432933,0.008404018,0.011060975,-0.0062285834,-0.011661626,0.009441456,0.011963417,-0.010599415,0.0044185338,0.005475713,0.0070587723,-0.0034014361,-0.0156678,0.0041148905,-0.001712412,0.00049198535,0.006400382,0.010260092,0.0003825705,-0.004646555,-0.0014463164,-0.006768973,0.008394796,-0.006605091,0.010034642,-0.0055098124,-0.0014943093,0.0042099254,-0.010278363,0.00012505881,0.012094909,-0.0028211826,0.00026917207,0.0021387308,-0.010096847,-0.0024471972,-0.0064870897,0.0016181988,-0.0030724022
一定,-0.0101600895,-0.015234496,0.011934147,0.00012229607,-0.01413787,0.007231008,0.0066285743,-0.013477334,-0.0041438155,0.004332925,-0.012178845,-0.0010814876,0.009577342,0.012365542,-0.004446559,-0.0031695259,-0.009281756,-0.00044125583,-0.003564977,0.0035127138,0.002568759,-0.0076981676,0.008478636,-0.003477734,0.00014096833,-0.0072566555,-0.0010464021,-0.011352317,-0.002350804,0.0012338838,-0.017181838,0.0018378932,-0.003128807,0.014852065,0.0037268684,0.015937718,0.006208301,-0.010029233,-0.010779685,-0.00088313845,-0.0055270987,0.0027960136,0.018195184,-0.010059607,-0.01164489,-0.009688258,-0.009504524,0.0032129725,-0.0117924595,-0.002367131
最好,-0.009136277,-0.0015653243,0.0072659277,-0.0052000717,-0.012350082,0.0014084291,0.00075122283,-0.0059562516,-0.012326822,-0.00031419017,-0.012248892,-0.0067314487,0.003476081,0.009500195,0.008361317,0.007111594,-0.0033183217,0.0079525,-0.0068934583,0.0037036943,0.008689605,0.0017892858,0.0026111032,-0.0051115835,-0.012319971,0.0052943546,-0.007881596,-0.003933666,-0.0054763607,-0.0064959205,0.0002836739,-0.0028044027,-0.01174445,0.010087394,0.0045392187,0.0022337476,0.0021510818,0.0069373073,-0.0105864825,0.0029303508,-0.0063201813,-0.0015409746,-0.0013482573,-0.007834879,-0.0068086246,0.005783575,-0.004015482,0.0082252445,0.0017958931,0.0029610174
難看,1.6146463e-05,-0.009972755,-0.0026272319,0.00092214806,-0.009313705,-0.0014060211,-0.002708795,-0.009698804,-0.013150812,0.0042915726,0.0014540283,0.004896348,0.0011450544,-0.0018797849,-0.0011312828,-0.012120521,-0.0031095373,0.01170826,-0.0018304863,-0.0073294626,-0.0047417567,0.005660401,0.0042747166,-0.016171092,-0.0032596306,-0.0010958724,-0.0049492405,-0.0080958465,0.0028194701,-0.004442358,-0.014858051,0.00205615,-0.012572495,0.0062291212,0.007587708,0.004787827,-0.00498248,-0.0038831115,-0.006031805,0.002902163,0.0047285995,-0.0046223463,0.007070607,-0.010068248,-0.006684329,0.0049320892,-0.0047042267,-0.000792972,-0.0049110763,0.0031799162
覺得,-0.01729576,-0.008664723,0.0084422035,-0.009595978,-0.014563407,0.003087209,0.014787709,-0.021680098,-0.0032499589,0.009875018,-0.013340774,-0.009232588,0.011415312,0.0059873145,-0.008278787,-0.0058798394,-0.006475406,0.0031696425,0.00068873726,-2.4569905e-05,0.009765011,-0.01119304,-0.0012398185,-0.029696522,-0.010131705,-0.013682001,-0.02492198,-0.015511009,0.01219688,0.0014646779,-0.025512226,-0.014321053,-0.007521197,0.011733074,0.0056756474,0.030057803,-0.010194137,-0.010600958,-0.006626559,-0.009030427,-0.0012161243,0.010662544,0.024427718,0.002834466,-0.016229685,0.0036450562,-0.0028358495,0.001796893,-0.0039461236,-0.0014812314
片長,0.0048209443,0.007368771,-6.0669012e-05,-0.00044398248,0.0073413975,-0.0032314064,-3.998669e-05,-0.010271487,-0.0016840047,-0.0039485376,0.006680365,0.0067700613,0.003937019,-0.005923701,0.008929538,-0.006744516,-0.0074182576,5.542716e-05,-0.000788744,-0.0033857715,-0.0013760832,0.0048462334,0.007989522,-0.006883706,0.0068461173,-0.008947667,0.005229087,-0.009016352,-0.0012238085,-0.010685769,0.005873614,-0.0066747325,0.0030944734,0.007286013,-0.00011075324,0.012541247,0.0019843567,-0.00024205742,0.0037933092,0.004962227,0.00012994457,-0.007242085,0.0046463734,-0.007589851,0.0007212208,-0.0082771545,-0.005036325,0.0020079708,-0.0045214323,-0.010021478
小時,-0.010998587,-0.009569769,0.0049733734,-0.011737723,-0.007946131,0.007340542,0.010774391,-0.0022536651,-0.009485899,-0.0072999704,-0.002573303,-0.007093419,0.006674391,-0.0050204014,0.0073014763,-0.00832256,-0.0063734003,0.005642103,-0.008560757,-0.0070553143,0.008793312,-0.0019899358,-0.0017310996,-0.010069313,-0.0012440999,-0.010786089,0.0006083119,-0.009478569,-0.0008698595,-0.010775254,-0.0068473816,-0.009449435,0.0020346662,-0.0064779553,0.0048505147,0.009498649,-0.005111568,-0.006887562,-0.0048703267,0.005976996,0.006646966,-0.0059406124,0.0041388404,-0.010374178,0.00063486124,-0.0035671026,-0.004981697,-0.0063618375,-0.0048765186,0.0013590299
陰影,-0.0010667947,-0.007987144,0.006462374,0.005613635,0.005496212,-0.0037874947,0.0064752633,-0.008355933,0.009772413,-0.004161305,0.00075986446,0.0005626372,-0.0031777378,0.0011062121,0.0038210445,0.0069211964,-0.001229697,-0.00320314,0.0024332404,0.0013503801,0.009265055,0.0055328286,0.0023875863,0.0049657235,-0.0010619457,0.0029722406,-0.0051378775,-0.0029502553,-0.0047723157,0.009047219,-0.00093535025,-0.009299615,-0.0026067388,0.0041854307,0.0047573284,-0.004905787,0.0065036346,-0.0040716454,0.006071954,0.008588236,0.007064303,-0.0006739011,0.004189391,0.008312377,0.0035540399,-0.0028398458,-0.0029131044,-0.0024809523,0.0067771007,-0.004791846
我並,0.0020797895,0.0006116691,-0.004646629,0.009125035,0.0036228232,-0.0073969825,0.0010691917,0.0034667728,0.002429604,-0.0023183578,-0.009008329,0.009854733,4.230616e-05,0.0048394552,-0.0016776122,0.0030138132,0.00049322395,0.007578106,0.008633195,0.0034138944,-0.0036360696,-0.00687106,0.0020488314,0.00220192,0.005301161,-0.009163904,0.007143179,-0.0046003303,-0.0010401859,0.0002770936,-0.00453568,-0.00885057,0.0021461537,0.008463082,0.0022355616,-0.0058685075,0.0021533335,-0.0037446972,-0.008257234,-0.008753485,0.004054366,0.0016914463,0.0065914034,0.008452312,0.005413004,-0.009911833,-0.0073189535,0.00036912246,0.0022919076,-0.008734692
拿到,0.007599117,-0.008800043,-0.005911221,-0.009695522,0.004642116,-0.0029107044,0.0052514975,-0.0059886826,-0.0096243,-0.008838663,-0.0040140077,-0.0024927277,-0.005570179,0.0058325683,0.0029477875,-0.006456707,0.007247006,0.0031858739,-0.0047601867,0.009398061,0.0051190336,-0.005625869,0.007987883,-0.009277112,-0.00062960404,0.0022463035,-0.0021141553,-0.0006815774,0.004324344,0.00354788,-0.0012677694,0.005586032,0.00047664624,-0.00032182818,0.0025723865,-0.0013334733,0.0063529117,-0.007502035,0.0045886296,0.009143399,-0.0055424096,-0.005998373,-0.00830557,-0.0025033269,-0.001420596,0.003910478,-0.0043672416,-0.008806161,0.006640064,0.0032011454
六顆,0.009543998,0.0074317134,-0.0057598525,-0.003987477,0.00040046897,0.008684928,-0.0020158081,-0.0015357478,0.00019472236,0.0056492877,0.0073945383,0.008313643,0.008405234,0.0020397597,-0.0028664926,-0.0056126635,0.006434945,-0.003054445,-0.008558654,-0.0056139673,0.0036213112,-0.009201858,-0.009236098,0.00729251,-0.0068232883,-0.0066988687,-0.0076730205,0.0042209355,0.005190068,-0.0039932136,-0.0021986992,-0.010155167,-0.005163448,-0.008653196,-0.0018106623,-0.0095847435,0.006162288,0.0051318877,0.0041417,0.008129102,0.00016243348,-0.008151817,-0.0033279764,0.00861125,-0.009850728,0.0074229273,-0.0073355846,0.006764923,0.0047572437,-0.0011159951
那位,0.008871985,0.0074795433,-0.0002905777,-0.006003903,0.009581555,0.007525773,0.0032401085,-0.0022629723,-0.008536771,-0.0042179762,0.008633324,0.004239968,-0.0011539157,-0.0079596685,0.008499587,-0.009786451,-0.0041971584,0.005106585,0.0032742901,0.0011073656,0.001342079,-0.003928823,-0.008233763,-0.0013344754,0.00087673264,-0.008531947,-0.0060744206,-0.0073981252,0.008739643,0.009127908,0.009401823,0.005463888,-0.009809864,-0.005575762,0.0023678779,-0.0022455794,-0.009224025,-0.004193783,-0.0060757594,-0.0065587107,-0.00018475119,0.009366293,-0.0034173883,-0.009716165,0.006100369,0.008732332,0.0032520795,-0.005059841,0.009440217,0.0035060227
女兒,0.005209186,0.004502667,0.0015733412,0.0005777841,-0.0029824984,-0.0050904383,-0.0032711152,-0.0062549445,0.005775714,-0.001516476,0.0030055605,0.006986009,-0.005963421,0.005940715,0.003703695,0.0036606865,0.0062383483,0.00055497733,-0.00988394,-0.0021653874,-0.0005537868,-1.3339468e-05,0.009832456,0.0002847749,-0.0018363843,-0.005182872,0.0019272733,0.0057783867,0.009492344,0.0020042437,-0.0054691457,0.0057367124,-0.004550843,-0.0037728122,0.00851208,0.009494951,-0.010185805,0.008323011,0.0073089786,0.0017075823,0.004394872,0.0060832277,0.010633329,-0.0011432486,0.0068032583,-0.002096972,-0.0057485537,-0.003712388,0.0028008306,-0.00065956597
未來,-0.0034077945,-0.0034331516,0.0089662485,0.006118533,-0.009932606,0.008296853,-0.008279122,-0.0078357,0.0085111195,-0.008805346,-0.0050888797,0.0039857007,-0.003230953,-0.0034833804,-0.0049865665,0.008531891,-0.00088839425,0.0039970344,-0.0038787392,0.008478093,0.00047505574,-0.0074513303,-0.0042596958,0.00755344,0.0044869995,-3.700306e-05,-0.0024894255,-0.0099687455,0.0024461218,-0.008765404,0.0077701756,-0.010594098,-0.0025882008,0.000183647,0.010450961,-0.0045976574,0.006646014,0.0048662405,-0.0041266154,0.0042810924,0.009481628,0.0047957064,0.007070889,-0.008982336,0.0028545696,-0.006966556,-0.003212483,0.006645308,0.002320517,-0.004093315
一段,0.0010687315,-0.0020417036,0.009433897,0.0053502056,0.007874041,0.009968994,0.0009328151,0.0027679577,-0.009364244,-0.008554876,-0.0010193526,0.006421083,0.0068893833,0.004888063,-0.0041024825,-0.0051264735,0.008848578,3.6021433e-05,0.0023579737,8.3175e-05,0.0026533627,0.0068734586,-0.0090833325,-0.0072450684,-0.004957565,-0.0055890596,0.006861469,0.008166492,-0.007090189,0.0078001544,-0.009032096,0.007950181,-0.008242083,0.0026302475,-0.0044972,-0.0044912426,-0.0094984565,-0.0042822957,-0.0014144916,-0.008206383,-0.0076540126,0.0036588619,0.008277657,-0.0058322484,-0.008683597,-0.0025969497,0.0043551396,-0.0083386265,-0.0087920865,-0.0010276887
認為,-0.010200218,0.005480312,0.010703465,0.0023566107,-0.009646939,-0.00079466734,0.010317289,-0.00648223,0.00432868,0.007965442,-0.008063052,-0.008816546,-0.005040473,0.0067363186,0.0043444205,-0.011451752,-0.0068485853,-0.0054597217,-0.0044412636,0.00041040618,0.0013436873,0.0036099127,0.0057386374,-0.0055960002,-0.0072013764,-0.00557807,0.005266995,0.0075309384,0.002543901,-0.006881331,0.005644755,0.002949498,-0.009147739,-0.006431546,0.00932581,0.0066737193,-0.006886885,-0.005164736,0.0008816517,0.008026814,0.0030386075,-0.004340825,-0.00025616333,0.007931312,-0.0063222377,0.0064018816,-0.0043470655,-0.0015210381,0.008491012,-0.010019474
意義,-0.0009546462,-0.002893273,-0.0022439621,-0.0058335583,-0.0066255205,-0.002987311,0.010935572,-0.006903141,-0.005056032,-0.0030800109,0.0064104535,0.007953335,0.001864806,0.0009489395,-0.0034692108,0.0041796044,0.0019454068,0.007314086,0.0069698426,0.0026035095,-0.0042955996,0.0077164145,-0.00726185,-0.0024694288,-0.0059535666,0.007351274,0.004472568,-0.009860348,-0.00801466,-0.004348972,-0.0032900455,-0.0035126538,-0.00093302364,0.0012970299,0.0086253015,0.011776632,0.0088859415,0.0036191717,0.0030712797,0.009483306,0.0006992507,-0.008525359,0.00540043,-0.0017543479,-0.012334095,-0.007900641,-0.011410298,0.0013928234,-0.003312072,0.0006804912
有趣,-0.009593206,-0.009241058,-0.0003089087,-0.009390483,-0.0018337144,0.0030399393,-0.0033921448,-0.006907793,-0.0045283707,0.0072291545,-0.0059727416,-0.0055151205,0.0045022597,-0.0059537822,-0.008225683,-0.008368193,0.006051349,0.006654541,-0.008768865,0.009721534,-0.0063295076,0.0038001111,0.0076562245,0.0041948366,-0.011102149,-0.0004643656,0.00044910389,-0.008947621,-0.0019245235,-0.00011028141,-0.011680266,-0.008108849,0.006447178,0.012357022,-0.0021608656,0.00937878,-0.0050307317,0.0012289112,-0.0030765801,-0.0018231443,-0.0005938591,-0.0028143455,0.013240657,-0.007041396,-0.0014741973,-0.0063918345,0.004879428,0.003815118,0.005941776,-0.0056098513
情節,-0.011286306,-0.0012533604,-0.0061050635,2.4204792e-05,-0.0006073749,0.004028949,-0.0086310245,-0.008792316,-0.0023780998,0.010032646,-0.0048876344,-0.008021231,0.00084790844,0.0014151998,-0.006972215,-0.0057681063,0.00057479943,0.0056037763,-0.0022520414,0.0058527594,0.0061974255,0.008186256,0.0024681124,-0.0075051356,-0.007881269,-0.0009353539,-0.01125287,-0.008274966,0.00754551,0.0029724087,-0.002181958,-0.0042522834,-0.002808116,-0.0068229563,-0.00016822627,-0.0008495096,0.009206555,-0.002208147,0.00056068867,-0.0036860362,-0.0037438336,9.2794915e-05,0.0002539083,0.0010664462,0.0034347803,0.0028621212,-0.0076499833,0.0071440977,-0.010299137,-0.0024216103
同意,-0.0030774246,-0.00075300504,0.007068784,0.0013826826,-0.007821478,-0.005794793,-0.007914079,-0.0038044623,-0.008911883,0.0046442575,0.006052963,-0.002274203,-0.0019847963,-0.0044472613,0.007367117,0.00016649539,-0.006400722,0.007462212,-0.003916249,-0.001598285,0.0042331894,-0.008822967,-0.008059326,0.009019724,-0.0012551735,0.00450631,-0.0028099252,-0.0045121806,0.006249878,0.0036417423,-0.005584873,-0.006126369,-0.0003417104,0.008650397,0.005667968,-0.0043077944,0.0074088043,0.00021648752,-0.0015657094,0.0034058702,0.0043528895,0.0030287928,-0.0065264064,-0.0001428746,-0.0039171595,-0.0057643787,-0.0044729994,0.0066128676,-0.007362991,0.0039586304
景甜,-0.00046704733,0.00658077,0.001198659,-0.0042146486,0.008460182,0.0004979037,0.008199142,0.0036410557,0.0033473733,-0.008078575,0.0009131239,0.008671045,0.0077896984,0.0074478844,-0.004332967,0.008072444,0.009578514,0.0015411822,-0.0025098987,-0.0023591102,-0.007734011,-0.0043159733,-0.0074997027,0.001416975,0.0074688075,-0.0059548644,-0.00224822,-0.006950155,-0.0075825593,0.0074962936,0.0038736952,-0.0096016675,0.0068617007,0.0003572114,-0.0075276364,-0.0036135023,-0.0065592052,0.007098601,-0.0039539007,-0.0024785844,0.0033629755,0.010048768,-0.00071203493,-0.0072548306,-0.001882686,0.004812078,-0.0074685193,-0.007107146,-0.0068597053,0.0059194406
中資,0.0030663179,0.006882534,0.00064048904,-0.0059242505,0.002965994,6.5225863e-06,0.00042568176,-0.0050955783,0.008812138,0.0016620094,0.004031912,-0.003953999,0.0071215667,-0.0031627608,-0.001226367,-0.005615612,-0.0071692187,-0.005018495,0.0032258194,0.0067006405,-0.008431478,-0.0050836043,-0.005720564,-0.008026996,-0.0081113605,0.0028463083,-0.00050556415,-0.0021998377,0.006176703,0.0014037201,-0.0029798849,0.0030100625,0.0006511359,0.009208857,-0.00040927486,-0.0045297365,-0.007387637,0.008649429,-0.0056226356,-0.0011080671,0.006438334,0.0072240317,0.009322656,0.009068273,0.0057708602,-0.009578307,-0.005002326,-0.0071235863,-0.0008236612,0.0009691021
亂入,-0.008467129,0.0032102217,0.0014427961,-0.007414556,-0.0046545635,-0.0074475985,0.0046886173,-0.005372554,-0.0025938223,-0.0011827387,-0.008577839,-0.0068565826,0.0059493384,-0.007946062,0.0088482965,-0.008973917,0.0037176951,-0.00020856026,-0.0017527404,-0.004303516,-0.008700293,-0.0067198235,-0.00095770985,-0.0099439435,0.0077326666,0.0036881766,-0.0041473997,0.00826923,-0.0017871121,0.0074444814,-0.0064170808,0.007410142,0.00095545955,0.00404699,-0.0021505358,0.0030289283,0.0023583386,0.008579849,0.00923755,0.009026429,0.0010916524,0.00436797,0.006663544,-0.0024806198,-0.0074809478,-0.0067814817,-0.00023606264,-0.009210278,-0.0069864397,0.00577191
興奮,0.0034805173,0.009649513,0.0010956186,0.008373684,-0.0085041085,0.00046991205,0.004548677,0.0042022644,0.006411776,-0.0023556785,-0.0020210214,0.009933935,-0.0007633537,-0.008395172,-0.0022032445,0.0036482196,-0.0050246385,-0.00012737629,0.008357627,0.0035127772,0.0011671438,-0.0007566615,-0.0054593007,0.0021275966,0.0009802452,0.0054870453,-0.0017297139,0.007750904,0.0038717669,0.0012826859,0.008465929,-0.0073907943,-0.005595644,-0.0036920542,0.00082424947,0.007356116,-0.006467775,0.009362195,0.004851877,0.0021639548,0.008256346,5.62106e-05,0.0008184909,-0.00642767,-0.0085618645,-0.0023100825,0.0047812327,-0.008484103,0.00062591914,-0.008084208
重量,-0.002131101,-0.008230091,0.008445762,-0.0023676965,-0.007210164,0.004674194,0.0067058527,0.001904334,-0.0046606744,-0.009584398,-0.0054329494,-0.007507805,0.0025104212,-0.008051939,0.009765605,-0.0013184804,0.008599503,-0.006521227,-0.0068240496,0.0040958542,0.0042304317,0.0007089896,0.0020901002,-0.0042755115,-0.0049050157,0.008163239,0.004152608,-0.0023969172,-0.008144997,0.0043925857,0.004592485,-0.0060102097,-0.008365715,0.007414407,0.007581758,0.0029411751,0.0009616924,0.00463227,0.0011482312,-0.0057240124,-0.008681562,0.0061442405,-0.009063322,-0.0063954876,0.005509386,0.0012542349,0.00035934732,0.008196263,0.008227074,-0.006773711
這十年,0.008433567,0.009423209,-0.0044115894,0.00813669,-0.0017092769,0.004622038,-0.0010777405,0.0060297037,-0.00821893,-0.0020303172,-0.0044533075,0.0077609667,0.004090971,-0.0065678554,-0.002910644,0.004643941,-0.008782697,-0.009715933,-0.008242084,0.0008356164,-0.00932683,0.0024481788,-0.00564392,-0.0009963855,-0.004582267,-0.005747812,-0.0029578353,-0.005929717,-0.0035933927,0.004329923,-0.0009090071,-0.0011993865,-0.009386926,-0.009214999,-0.0041535576,-0.0075641307,0.009427881,-0.008218173,0.0077829654,-0.006562965,-0.0057665054,-0.009552934,0.0020273663,0.006546749,-0.0076222485,-0.0033452252,-0.0065406873,0.0057680653,-0.0071662134,-0.0036816455
堪稱,-0.0078453645,0.0017923267,-0.0047609424,-0.00384786,-0.005049348,-7.0635695e-05,0.008953707,-0.005948252,-0.001426576,-0.0048116823,0.009281257,0.0056207315,0.0077129314,-0.009144067,0.004795969,0.005853579,0.0049494933,-0.004188405,0.0058208597,-0.0011076625,-0.0042663435,-0.008004505,-0.009453284,0.003751759,-0.0023010662,0.009015196,0.008212236,0.0021355094,0.0063641383,-0.0015164394,0.0057143862,0.005323,-0.000975048,-0.009352842,-0.0013446696,0.0005472435,-0.0050610565,0.0047717993,-0.00010465347,-0.007905375,0.008674818,-0.0073382296,0.0076875607,0.00903862,0.0042475685,-0.0030775152,-0.0035375906,-0.005417204,0.0016592924,-0.0072066993
古人,-0.006258565,0.004137733,-0.008604636,0.0053436602,0.0005718255,0.0013976666,0.0059780134,-0.003279625,-0.008913329,0.0054213274,-0.002812889,0.0037074515,0.0027864154,-0.008812178,0.0023586426,0.0097802505,0.0015959872,-0.0029159244,0.005427833,-0.00030093585,0.005776029,0.00499751,-0.0072739916,0.0025788262,-0.006867828,0.00058689486,0.0014734288,-0.0067128786,0.0064560007,-0.0079048565,-0.002709269,-0.0060459576,0.002212909,0.007643504,0.00059745664,-0.0050369953,-0.0062527265,0.00451909,0.008729218,-0.0046391054,-0.009304249,-0.008397434,-0.0061870036,-0.0077124774,-0.004532238,-0.00032036303,0.0036834434,0.0021715956,-0.0049598715,-0.0043234443
融合,0.0060259183,0.007542016,0.0009266469,0.008123411,-0.0054135034,0.0048141484,-0.006594131,0.0064344066,0.0006724534,0.00986047,0.0020696882,-0.0015543805,0.0045861504,0.010184533,-0.009474053,-0.0039898944,0.007552728,0.010312648,-0.004604779,0.0044915793,-0.008603392,-0.0029258833,-0.0042052763,0.007597312,-0.0074174134,0.0075884047,0.0009549324,-0.006773506,-0.0034037507,0.0011832968,0.0054048984,0.0033953,-0.0077789994,-0.0036984244,-0.0017865504,-9.130885e-05,0.009851203,0.0017652864,0.0022074587,0.0072102244,-0.008109392,0.0026153494,0.007156311,-0.007033347,0.005515022,0.008237338,0.003087991,5.700423e-06,-0.004790848,0.0091535235
角色,-0.0077718254,-0.0015645556,-0.0030160681,0.0031449648,-0.010902227,0.006228463,0.013951522,-0.00069623155,0.0008909654,0.010431272,-0.008865042,0.008595166,-0.0017682591,0.002881352,-0.005439246,-0.0112432055,0.00436848,0.009509613,-0.0021328311,0.008173275,0.012670547,0.00095532736,0.003592822,-0.02472115,-0.004142464,-0.00421903,-0.013845398,0.0010573213,-0.0023231762,0.0011221374,-0.00947085,-0.0065123,-0.0068851844,0.017112019,0.012257544,0.0064978944,-0.0033796143,-0.0039233016,-0.007370178,-0.006887005,0.008099793,0.008315818,0.020613758,-0.009437095,-0.009426278,0.0011436549,-0.004016289,-0.00039161445,-0.009853045,0.0039806496
主角,-0.011972695,-0.019333929,-0.0037889825,-0.0075744847,-0.017752398,0.014216937,0.012368274,-0.009319766,-0.003941895,0.004141887,-0.0066512823,0.00907319,-0.00077801454,0.019909618,0.0064260243,-0.009371781,-0.0035878867,-0.00023870416,-0.015837641,0.010059322,0.012538517,-0.0016763159,-0.0049461084,-0.01082389,-0.00071204954,-0.0067034774,-0.006001232,-0.0038253118,-0.004326613,-0.0038251365,-0.015439866,-0.016667765,-0.010487165,0.013523448,0.004251451,0.01741079,-0.007578676,-0.010144284,0.0043418687,-0.010714372,-0.0022862183,-0.002098183,0.022429794,0.0015996818,-0.016395986,0.0005105744,-0.020160696,-0.005531571,-0.008274081,0.0069270264
本片,0.003198717,-0.005444388,-0.0058940644,0.0026564212,-0.008984549,-0.008555259,0.0047409465,0.0030407044,0.0029805894,0.0069447304,-0.003869286,-0.008259722,-0.004601101,-0.0051511275,-0.005447277,-0.0048164814,0.0026664457,-0.0019500153,-0.0014882686,-0.008723682,0.0056426236,0.0051418236,-0.0045165564,0.0024119588,0.0033029346,0.004165477,-0.010997218,-0.003892223,-0.0046600956,-0.002427612,0.0045206575,-0.008286955,-0.006474272,0.0087370975,0.010355998,0.011246212,0.001014277,-0.006148262,-0.0048999884,0.0066362927,0.0073531535,-0.0073043094,0.008544891,0.004771922,-0.0072367475,0.0037740872,-0.0020374877,-0.009036222,0.0056125447,-0.009443219
最終,-0.00439734,-0.009487266,-0.0007414349,-0.0013829158,-0.007869303,-0.0050352397,-0.006365755,-0.0008398963,0.00037477445,-0.0022912282,0.0021210925,-0.007070261,-0.00063673535,0.011378066,0.0002663925,0.0033069337,0.005842318,0.0005407035,-0.0077305944,0.004348996,0.00899015,0.00078078744,-0.009635398,0.0033639793,-0.0020057615,-0.0011324204,0.00580834,-0.0010637855,0.0059957886,-0.0017903569,-0.007842844,0.0073628714,0.00080801925,-0.008140249,0.006111692,0.009159839,0.0021189158,0.005775167,-0.0027301002,0.0028975129,-0.004679519,-0.008187518,-0.00778554,-0.006658654,0.0031748507,-0.009732699,-0.008695771,0.002567511,-0.006606252,-0.009622543
理念,-0.0012323214,0.0069588814,-0.007138728,-0.005534401,-0.0021396114,-0.0034420579,0.005762755,-0.006525797,0.006681699,0.0006757565,0.00933416,-0.00014188107,0.004059433,-0.0023848773,0.007246175,0.0028615035,-0.0010141416,-0.005822406,0.0035285102,0.0021048463,-0.004166004,0.0055436157,-0.00012942412,0.0020914553,0.0034958757,0.005762952,-0.0035635175,0.0020549532,-0.0049884836,-0.003134245,0.005303844,-0.0077421465,0.0092519475,0.00940181,0.007848617,0.0012693709,0.009722028,0.0039038432,-0.002385661,0.007600815,-0.004115594,0.0004244977,0.008511772,-0.0041007814,-0.004929827,0.0073938305,-0.008652485,-0.007922478,0.0041968445,0.0040043336
老梗,0.0070568896,-0.0022146564,-0.008161353,-0.0049434877,0.00542358,0.0064830035,0.0046894313,-0.008756297,-5.0494007e-05,0.007369897,-0.006091259,-0.0011757723,0.0023904138,0.003994558,0.008787453,-0.010666772,0.0072836196,-0.0056869457,-0.00030381547,-0.0008976251,0.0026415423,-0.0030298913,0.006752993,-0.00946019,-0.002241706,0.005272279,-0.01150717,-0.0030504612,0.0063803196,-0.009882349,0.0009677249,-0.007962705,-0.009441295,0.0032138282,0.00398654,0.004573746,0.001058375,-0.0017943028,-0.008291454,-0.0039486373,0.003375717,-0.0034591623,-0.0033792243,0.0059006885,0.00022313645,0.002718916,0.005825334,-0.0075881695,-0.007994957,0.0048652575
令人,-0.010224432,-0.0020704963,-0.005780341,0.0032656947,-0.010502426,-0.006350781,0.0061631193,0.0076698638,-0.0008499872,0.0103374645,-0.0004571628,0.004899483,0.0057233116,0.00036339575,0.00034269528,-0.00033971074,-0.0023653593,0.0103130955,0.00045943406,0.0052233394,0.010607714,-0.0013993845,0.005368578,-0.0013125241,0.006755811,-0.0061776247,0.00627515,0.009229249,0.0037973658,-0.00244848,0.0006365206,-0.005765764,0.0009951805,-0.0021752915,-0.00044167764,0.008003442,-0.0010099921,0.0038053093,-0.000797036,-0.00024583095,0.0016054427,0.010903546,0.0070989975,0.006908388,-0.00039654435,0.005256651,0.004625665,0.004825145,-0.0068123946,0.003065856
平衡,0.0045753624,-0.010105027,0.006151699,-0.0053226463,0.0020984297,-0.004740739,0.0057248487,-0.0043581547,0.0018164499,0.0035859128,0.0050335634,0.003223056,-0.002236425,0.0003924841,7.127494e-05,-0.0011353641,-0.0039654486,-0.00014771873,-0.00674898,-0.0037985507,-0.005246107,0.0017698656,0.005517175,-0.009434501,-0.0070870784,0.008179471,0.006987646,-9.27125e-05,0.0075477185,0.0027173166,-0.00094820175,-0.006069294,-0.006945034,0.0037838104,0.0022439735,0.00071950955,-0.0023859977,-0.009037552,-0.00017422411,-0.0029320414,0.009638583,0.0027715496,-0.005528088,-0.004863819,0.008381954,-0.00096437737,-0.007770554,-0.004811711,0.006685545,0.007313576
繼承,-0.004442819,-0.0062224586,0.0045719384,-0.0053095,-0.0013162908,-0.00252823,0.0023651735,-0.00043656823,-0.0053813597,0.0033839596,0.0091240285,-0.005254364,0.0010116046,-0.004803501,0.009987718,-0.005090141,0.0010396019,-0.0068704993,0.0009001244,0.002989048,-7.7454475e-05,-0.00040065983,0.0029151274,0.006728555,-0.009619129,0.007410429,0.001319021,0.006597358,0.004211337,-0.006898335,-0.0015597829,-0.0011077191,-0.005861191,0.0059876647,0.00096221495,0.0015492503,0.0066540516,-0.0043392894,0.0051374254,-0.0018329372,0.009924357,0.009262018,-0.0012601131,-0.008388734,-0.004339821,0.00798718,-0.0036271764,0.004121232,-0.008474606,-0.006551316
以往,-0.0051164194,-0.009130899,-0.00864617,0.0023246114,-0.0066836346,0.0022608424,-0.0026753165,-0.010606315,-0.008019744,-0.008739135,0.0011457358,-0.008254041,0.0034467462,-0.004129394,0.002511076,0.0053021503,-0.005897585,0.0025560427,0.0044126394,-0.0062362864,-0.007803754,0.007833166,-0.005698692,-0.008328925,0.005859445,-0.0033216276,-0.006524841,-0.0027440183,-0.0029775666,-0.007702097,-0.0022271746,-0.0077922703,0.0017241532,0.005321643,0.008727585,0.009197812,-0.008658298,0.007812487,0.0065419124,-0.00097294024,-0.0050416775,-0.0072939247,0.011135126,-0.01001831,-0.0053390316,-0.008910029,0.006109983,0.002064223,-0.0051040906,-0.008091741
搞笑,0.0027959233,-0.013294379,0.0015653843,0.004618826,-0.0005410272,0.004609316,0.006830486,-0.0046644793,-0.010379559,0.00071715226,-0.012432691,0.0052484046,0.00961803,-0.0055786273,0.0070259357,-0.005101231,-0.007576325,0.00327637,0.0065515735,-0.005784286,-0.006059593,0.0068746693,-0.0059608035,-0.0015697082,-0.005451656,-0.009870745,0.004886464,-0.010261197,-0.003658706,0.0002518477,0.0021924716,-0.012162552,-0.0023662215,0.011165207,-0.0039069573,0.0036351746,0.00846151,0.0062465607,-0.0024910863,0.002437215,-0.004523739,0.0052933455,-0.0035811032,-0.0018075914,-0.0012604318,0.006307689,-0.011093613,0.0010976286,0.0041741533,0.009101755
風格,0.0061714426,-0.008006439,0.00985208,-0.0061148643,0.0037853606,0.010104723,0.009630178,-0.013831681,-0.0028378747,0.008361401,-0.009605176,0.0059937425,-0.0046883,-0.0021560455,-0.0019509824,0.004730629,0.0023757436,0.0073194993,-0.00040469924,-0.0017794266,0.0112659745,0.0011178197,-0.0009078401,0.0010605721,-0.0029268893,-0.0068597835,-0.00011540864,-0.010356616,-0.004757103,0.005856812,-0.00610105,-0.0033051013,-0.008189321,-0.000952747,-0.0073615313,0.0023585574,0.00800462,-0.009875849,-0.009938748,0.0081045935,0.0075359815,-0.0027895123,0.0084188795,0.0028900404,-0.009402241,-0.00755435,-0.0024101369,0.00038918128,-0.0038177173,0.0013216587
